%YAML:1.0
---
svmclassifier: !!opencv-object-detector-hog
   winSize: [ 96, 160 ]
   blockSize: [ 16, 16 ]
   blockStride: [ 8, 8 ]
   cellSize: [ 8, 8 ]
   nbins: 9
   derivAperture: 1
   winSigma: 4.
   histogramNormType: 0
   L2HysThreshold: 2.0000000000000001e-01
   gammaCorrection: 1
   nlevels: 64
   signedGradient: 0
   SVMDetector: [ 6.58198446e-02, 4.90316041e-02, 8.41253176e-02,
       1.15254529e-01, 1.28979608e-01, 1.39612302e-01, 1.60150647e-01,
       2.17768013e-01, 2.38433585e-01, 6.18619472e-02, 6.12560436e-02,
       6.56369179e-02, 1.43853128e-01, 2.75275111e-01, 2.61884183e-01,
       2.70650566e-01, 1.27949104e-01, 1.33311868e-01, 4.59855050e-02,
       2.25054175e-02, 2.43130345e-02, 4.19238359e-02, 6.41104430e-02,
       1.24389008e-01, 2.90325940e-01, 2.90325940e-01, 2.90325940e-01,
       2.73475256e-02, 3.00391596e-02, 5.40139377e-02, 9.59296823e-02,
       1.77677110e-01, 1.42701685e-01, 2.90325940e-01, 2.90325940e-01,
       8.89696479e-02, 8.33110213e-02, 9.84801129e-02, 5.08284196e-02,
       8.38419050e-02, 2.59754837e-01, 2.06992954e-01, 2.29117259e-01,
       1.41867891e-01, 1.37022093e-01, 2.83945084e-01, 2.83945084e-01,
       1.50307611e-01, 7.29247183e-02, 1.54990390e-01, 7.84429386e-02,
       9.15855095e-02, 1.39740840e-01, 2.15223864e-01, 3.51220816e-02,
       4.58390489e-02, 1.13350548e-01, 1.19824931e-01, 2.47001246e-01,
       1.93572477e-01, 1.91694528e-01, 1.43854126e-01, 6.19491674e-02,
       1.38944894e-01, 1.46571606e-01, 2.08580017e-01, 1.15047134e-01,
       1.54698774e-01, 1.47448286e-01, 2.03083023e-01, 2.21790478e-01,
       2.27348372e-01, 2.82424301e-01, 2.27031350e-01, 1.18003435e-01,
       7.74476305e-02, 5.61832786e-02, 4.50949296e-02, 6.91207051e-02,
       8.05605799e-02, 2.04766989e-01, 2.82424301e-01, 1.58370897e-01,
       1.48806795e-01, 1.28298581e-01, 1.32213667e-01, 7.12892786e-02,
       1.27292395e-01, 1.21837407e-01, 2.60892808e-01, 2.24720299e-01,
       1.80804908e-01, 1.75477386e-01, 8.25759694e-02, 6.40941560e-02,
       3.38200442e-02, 1.22988820e-01, 1.65080532e-01, 2.82424301e-01,
       2.17648402e-01, 2.08182484e-01, 1.78866073e-01, 1.49636552e-01,
       1.08120643e-01, 5.27208820e-02, 1.37055442e-01, 1.27005771e-01,
       2.82424301e-01, 1.93641216e-01, 8.96866918e-02, 8.48332644e-02,
       6.53689131e-02, 1.29107028e-01, 1.29439786e-01, 1.81981027e-01,
       1.40878335e-01, 2.56381124e-01, 1.20670080e-01, 5.33311851e-02,
       7.25853592e-02, 5.80987036e-02, 1.29088253e-01, 1.55352235e-01,
       2.71882474e-01, 2.45533466e-01, 1.95944458e-01, 2.06668735e-01,
       1.98667347e-01, 1.49324372e-01, 8.78601149e-02, 6.41317517e-02,
       5.77161685e-02, 1.33050904e-01, 1.16583548e-01, 2.14767277e-01,
       2.71882474e-01, 2.71882474e-01, 2.71882474e-01, 1.15074307e-01,
       5.39464951e-02, 6.48991168e-02, 2.19454244e-01, 1.65241599e-01,
       1.84540212e-01, 1.12674750e-01, 4.86028269e-02, 7.37602785e-02,
       8.73022601e-02, 1.27420619e-01, 1.61947966e-01, 2.65953153e-01,
       2.02828884e-01, 1.62115350e-01, 1.24135800e-01, 9.47299898e-02,
       7.06786886e-02, 1.08565547e-01, 2.17273459e-01, 2.22001001e-01,
       2.65953153e-01, 1.83582813e-01, 1.46858335e-01, 1.30446479e-01,
       1.71717629e-01, 2.58410037e-01, 1.47767633e-01, 1.85452580e-01,
       1.37288466e-01, 2.09366605e-01, 1.23748362e-01, 9.27320719e-02,
       1.51393861e-01, 1.22389652e-01, 1.00410007e-01, 1.10415787e-01,
       2.41929546e-01, 2.11575463e-01, 1.85580328e-01, 2.09140107e-01,
       1.64921388e-01, 1.69653460e-01, 9.28613320e-02, 6.92299530e-02,
       7.55586401e-02, 1.54402450e-01, 9.17798430e-02, 1.41156882e-01,
       1.18992195e-01, 1.39446124e-01, 1.88761428e-01, 9.87144336e-02,
       2.59588867e-01, 2.59588867e-01, 2.57202595e-01, 1.12622820e-01,
       6.33169189e-02, 7.11625889e-02, 1.33517042e-01, 1.69798017e-01,
       1.04265161e-01, 8.33944529e-02, 3.79520766e-02, 7.25893602e-02,
       1.53819472e-01, 2.59588867e-01, 2.59588867e-01, 2.13172168e-01,
       1.57490030e-01, 1.08414836e-01, 2.15980813e-01, 1.41415626e-01,
       2.59588867e-01, 1.22770026e-01, 2.25973159e-01, 2.13427439e-01,
       1.95705593e-01, 4.48882133e-02, 8.91412348e-02, 2.28907704e-01,
       2.82492489e-01, 2.82492489e-01, 1.76481500e-01, 6.56746998e-02,
       2.27060486e-02, 3.40846442e-02, 9.35932621e-02, 1.90710068e-01,
       1.43736720e-01, 2.69991338e-01, 2.34362304e-01, 1.14606105e-01,
       7.16077089e-02, 4.38614935e-02, 9.70036164e-02, 1.24903053e-01,
       1.26144081e-01, 1.83800876e-01, 2.82492489e-01, 2.82492489e-01,
       7.93739781e-02, 7.78737739e-02, 1.02437332e-01, 8.62696692e-02,
       1.34688646e-01, 1.61791876e-01, 1.41010985e-01, 2.82492489e-01,
       2.77712196e-01, 7.73246959e-02, 1.02078781e-01, 1.14231296e-01,
       9.53620300e-02, 1.92325398e-01, 1.93029493e-01, 1.74341395e-01,
       2.09043965e-01, 2.01230168e-01, 9.09457728e-02, 9.78967324e-02,
       7.77198970e-02, 1.45387545e-01, 7.67271519e-02, 1.29455835e-01,
       2.81046569e-01, 3.02221388e-01, 3.02221388e-01, 1.84126362e-01,
       1.68454066e-01, 8.73084664e-02, 4.03134897e-02, 1.17112331e-01,
       9.66044590e-02, 1.55842379e-01, 1.41955718e-01, 1.76278278e-01,
       1.05534650e-01, 1.43138215e-01, 1.87723249e-01, 1.92599162e-01,
       1.02704927e-01, 1.20090172e-01, 2.21771434e-01, 1.73778772e-01,
       1.98823839e-01, 1.14691190e-01, 1.25468716e-01, 1.25820965e-01,
       1.27057388e-01, 3.02664954e-02, 1.32483259e-01, 1.55759394e-01,
       2.90385693e-01, 2.90385693e-01, 1.61981374e-01, 1.28391087e-01,
       7.09753186e-02, 2.58374196e-02, 8.66356865e-02, 2.84819841e-01,
       2.27265984e-01, 1.40041843e-01, 1.89371139e-01, 1.02901191e-01,
       8.51320550e-02, 5.05328216e-02, 5.58395982e-02, 1.54178664e-01,
       1.97592080e-01, 1.73002750e-01, 1.58644810e-01, 1.60257712e-01,
       8.00273120e-02, 1.32419869e-01, 7.89582953e-02, 9.38643143e-02,
       2.90385693e-01, 2.90385693e-01, 2.29893804e-01, 1.15850002e-01,
       1.12568490e-01, 9.31514502e-02, 1.48674786e-01, 1.47416279e-01,
       1.88021481e-01, 6.30595610e-02, 2.50358492e-01, 2.84319758e-01,
       1.62225381e-01, 8.36667269e-02, 4.31287549e-02, 1.65421721e-02,
       1.98360533e-02, 3.97942215e-02, 6.99131936e-02, 1.67695254e-01,
       2.84319758e-01, 2.84319758e-01, 1.18846223e-01, 5.04311286e-02,
       2.64376458e-02, 3.37150395e-02, 7.04120025e-02, 1.47682831e-01,
       2.08316922e-01, 2.32365131e-01, 1.10217385e-01, 5.61659858e-02,
       6.90248832e-02, 8.37581977e-02, 2.37619817e-01, 2.27737039e-01,
       2.84319758e-01, 1.84837684e-01, 2.30585083e-01, 1.41159102e-01,
       7.60299116e-02, 6.38242438e-02, 5.24759330e-02, 2.40703285e-01,
       2.84319758e-01, 8.43397975e-02, 1.82793230e-01, 2.29654312e-01,
       1.78787634e-01, 7.47853294e-02, 3.50720510e-02, 5.56288324e-02,
       2.71695554e-02, 1.11697517e-01, 9.14407074e-02, 3.10691386e-01,
       3.10691386e-01, 1.04066283e-01, 4.63965014e-02, 3.42166983e-02,
       4.40729000e-02, 3.25020924e-02, 7.06432909e-02, 2.83748150e-01,
       3.10691386e-01, 2.70583659e-01, 1.41279921e-01, 6.56175613e-02,
       4.50223237e-02, 4.73529324e-02, 7.00251386e-02, 1.49434373e-01,
       3.02864790e-01, 3.10691386e-01, 3.10691386e-01, 1.25440046e-01,
       3.83968242e-02, 5.30417971e-02, 5.66997975e-02, 3.70293148e-02,
       9.77113247e-02, 1.51330665e-01, 2.67615765e-01, 3.44953090e-01,
       9.59458128e-02, 5.08042090e-02, 6.01078384e-02, 8.87805447e-02,
       4.79771420e-02, 3.70508246e-02, 3.44953090e-01, 2.24662021e-01,
       1.60383224e-01, 1.33643299e-01, 1.09466143e-01, 1.11790963e-01,
       1.58705071e-01, 7.04565272e-02, 6.66900054e-02, 3.44953090e-01,
       2.18814939e-01, 1.94193825e-01, 7.15604052e-02, 2.59232577e-02,
       5.01537658e-02, 7.27161393e-02, 4.77736294e-02, 1.66998208e-01,
       3.44953090e-01, 2.15134457e-01, 8.32681358e-02, 9.74128023e-02,
       3.74107771e-02, 3.93367074e-02, 6.80798069e-02, 1.07483059e-01,
       1.86478510e-01, 3.02910775e-01, 2.50708222e-01, 8.46990719e-02,
       8.92014652e-02, 7.46955946e-02, 7.41902143e-02, 7.00756609e-02,
       9.48755667e-02, 1.25930279e-01, 3.02910775e-01, 2.79668331e-01,
       1.02666363e-01, 3.58259156e-02, 4.45368178e-02, 7.47819468e-02,
       8.48150179e-02, 1.10409319e-01, 3.02910775e-01, 3.02910775e-01,
       2.05904096e-01, 5.09400144e-02, 6.92070797e-02, 3.44441943e-02,
       4.31387164e-02, 6.09672815e-02, 1.48016110e-01, 1.76962197e-01,
       3.02910775e-01, 1.84551433e-01, 6.28885925e-02, 4.16269898e-02,
       4.95222248e-02, 1.02195054e-01, 1.23780958e-01, 1.81304917e-01,
       3.02910775e-01, 3.05064291e-01, 2.23044127e-01, 7.78326616e-02,
       2.25352142e-02, 2.70396229e-02, 2.78678071e-02, 4.94443588e-02,
       9.26965401e-02, 3.05064291e-01, 3.05064291e-01, 1.95862442e-01,
       7.36655891e-02, 3.95622514e-02, 5.43678142e-02, 9.58160311e-03,
       2.03300752e-02, 1.30206496e-01, 2.91737676e-01, 2.94482917e-01,
       1.39242649e-01, 5.50362356e-02, 4.41523828e-02, 4.46437672e-02,
       7.19317272e-02, 8.61281827e-02, 1.66200504e-01, 3.05064291e-01,
       3.05064291e-01, 1.95402354e-01, 1.45105690e-01, 8.20683092e-02,
       6.41496703e-02, 3.07288393e-02, 4.46942076e-02, 1.53467253e-01,
       2.49026775e-01, 3.31732064e-01, 1.96014509e-01, 9.60587412e-02,
       6.28634393e-02, 8.08890834e-02, 3.51330601e-02, 2.47748084e-02,
       9.57028121e-02, 2.20168322e-01, 2.02069521e-01, 1.73787743e-01,
       1.32317588e-01, 9.00218263e-02, 6.03312664e-02, 5.36617637e-02,
       8.32030028e-02, 1.42054781e-01, 2.68279284e-01, 2.67130792e-01,
       2.18959615e-01, 1.81024373e-01, 9.00921747e-02, 9.08417627e-02,
       4.14984897e-02, 3.41537818e-02, 9.19194743e-02, 2.19995543e-01,
       1.90368846e-01, 3.31732064e-01, 3.31732064e-01, 1.10247575e-01,
       9.31005478e-02, 6.21465072e-02, 6.45266324e-02, 1.07470535e-01,
       2.04609811e-01, 1.27990678e-01, 8.25537220e-02, 7.60717541e-02,
       4.15834114e-02, 2.32833438e-02, 2.99681034e-02, 5.01833223e-02,
       6.85842186e-02, 1.03005469e-01, 2.34396741e-01, 3.09901208e-01,
       2.06150025e-01, 9.47924852e-02, 3.04620173e-02, 3.99796516e-02,
       2.77141947e-02, 3.26411650e-02, 7.14068040e-02, 3.01898628e-01,
       4.10215348e-01, 1.73805207e-01, 3.60477604e-02, 2.37143002e-02,
       2.77650040e-02, 3.22340168e-02, 3.26422639e-02, 7.08000809e-02,
       4.10215348e-01, 4.10215348e-01, 2.32805461e-01, 8.56735781e-02,
       1.67147547e-01, 3.63505892e-02, 1.95830036e-02, 1.64426379e-02,
       8.13104361e-02, 2.64040351e-01, 2.51151681e-01, 1.14179157e-01,
       4.88687307e-02, 1.25185456e-02, 1.19353700e-02, 7.27114733e-03,
       1.51520893e-02, 4.89958376e-02, 3.65854949e-01, 2.62025654e-01,
       5.19962050e-02, 2.61427630e-02, 1.13450047e-02, 7.97887892e-03,
       1.45349894e-02, 3.08549553e-02, 1.14182465e-01, 3.65854949e-01,
       3.65854949e-01, 1.53075740e-01, 8.28827843e-02, 1.61415040e-01,
       2.47636456e-02, 5.91108296e-03, 9.13228933e-03, 5.57236783e-02,
       3.65854949e-01, 3.65854949e-01, 8.43571350e-02, 5.49680851e-02,
       7.30969384e-02, 1.42922951e-02, 5.86833619e-03, 2.21041683e-02,
       1.14257753e-01, 3.78358155e-01, 1.07210264e-01, 2.21078098e-02,
       1.05149755e-02, 2.11744141e-02, 2.43197810e-02, 4.01374362e-02,
       5.04486524e-02, 2.20087647e-01, 3.78358155e-01, 2.07791463e-01,
       2.19138823e-02, 1.05456281e-02, 3.91474366e-02, 2.77850777e-02,
       6.02439418e-02, 7.36196712e-02, 3.18436086e-01, 3.78358155e-01,
       1.53466433e-01, 7.08765462e-02, 4.86041009e-02, 6.77115172e-02,
       1.98056214e-02, 9.95467976e-03, 2.97578555e-02, 2.02570930e-01,
       3.78358155e-01, 1.42519936e-01, 6.37862310e-02, 6.63527697e-02,
       9.45613980e-02, 2.57471465e-02, 1.12521341e-02, 2.39306763e-02,
       2.90390670e-01, 3.99707735e-01, 3.99707735e-01, 8.11358839e-02,
       2.10416131e-02, 4.35855389e-02, 3.57918292e-02, 4.01065759e-02,
       6.11184277e-02, 1.44747168e-01, 2.27774993e-01, 3.99707735e-01,
       1.61507651e-01, 3.04707047e-02, 2.35029757e-02, 3.80355828e-02,
       2.52538845e-02, 3.33126374e-02, 3.50520276e-02, 3.99707735e-01,
       3.44957083e-01, 8.46710205e-02, 6.96415156e-02, 7.41776749e-02,
       3.34462039e-02, 7.27051450e-03, 2.33170725e-02, 1.31003916e-01,
       9.57608446e-02, 2.55002230e-01, 5.16485944e-02, 3.56436409e-02,
       3.31727378e-02, 3.28904204e-02, 1.59334633e-02, 1.85540691e-02,
       1.61560047e-02, 4.19678576e-02, 7.16367736e-02, 5.82839698e-02,
       8.33671913e-02, 6.94633052e-02, 1.08092472e-01, 2.50279337e-01,
       1.30301282e-01, 1.03302442e-01, 1.45617619e-01, 1.65816337e-01,
       1.04099177e-01, 1.06426001e-01, 1.59842119e-01, 1.18926995e-01,
       2.66772747e-01, 1.40533000e-01, 7.34567344e-02, 2.94484407e-01,
       2.22676769e-01, 1.54821888e-01, 1.34636387e-01, 1.57750860e-01,
       1.19105384e-01, 7.79579878e-02, 7.97125921e-02, 1.75168574e-01,
       3.31777185e-01, 3.31777185e-01, 1.67725921e-01, 1.33816093e-01,
       1.26566082e-01, 8.60290751e-02, 8.97103101e-02, 1.07975222e-01,
       3.09628516e-01, 1.01680182e-01, 2.17269868e-01, 1.98963210e-01,
       9.26515460e-02, 1.30717635e-01, 1.28089398e-01, 1.13595769e-01,
       9.85951200e-02, 8.12254548e-02, 6.60174340e-02, 1.15316920e-01,
       1.73338681e-01, 1.49029925e-01, 1.07893094e-01, 1.44644186e-01,
       1.54771447e-01, 2.21860006e-01, 2.27781713e-01, 2.99829781e-01,
       2.99829781e-01, 1.60295516e-01, 9.21790451e-02, 7.72547945e-02,
       7.07439929e-02, 5.62616177e-02, 7.89903402e-02, 2.10050657e-01,
       1.85021862e-01, 1.63514510e-01, 1.55982107e-01, 2.99829781e-01,
       2.08759800e-01, 1.99137494e-01, 1.25321433e-01, 1.48948357e-01,
       1.61936194e-01, 1.02592744e-01, 1.04069851e-01, 1.85131803e-01,
       1.54789940e-01, 1.24288097e-01, 3.93019356e-02, 9.34017897e-02,
       1.36382163e-01, 2.61508912e-01, 1.27181754e-01, 1.66913942e-01,
       2.94131845e-01, 2.94131845e-01, 1.15839630e-01, 3.64327580e-02,
       8.82293954e-02, 5.85294664e-02, 2.30640680e-01, 3.85531746e-02,
       1.13972344e-01, 2.71150976e-01, 2.94131845e-01, 1.92233145e-01,
       9.01479051e-02, 8.77408087e-02, 8.73886198e-02, 8.70672166e-02,
       6.26434684e-02, 1.11776434e-01, 2.94131845e-01, 2.94131845e-01,
       1.72834292e-01, 5.32433242e-02, 1.07228883e-01, 1.30009204e-01,
       1.24473043e-01, 1.66840002e-01, 2.20903471e-01, 2.73118585e-01,
       2.68447638e-01, 5.69941737e-02, 3.68589424e-02, 5.03296405e-02,
       2.51095220e-02, 8.95520672e-02, 2.56631643e-01, 2.73118585e-01,
       2.58039892e-01, 1.43492118e-01, 9.30220187e-02, 4.71445769e-02,
       3.23919468e-02, 1.75945852e-02, 5.60165495e-02, 1.66313350e-01,
       9.09167826e-02, 2.73118585e-01, 2.73118585e-01, 1.11562304e-01,
       5.89356087e-02, 7.87406862e-02, 1.51810035e-01, 2.23629937e-01,
       2.53266364e-01, 1.07700661e-01, 1.24969222e-01, 1.20659880e-01,
       1.54461682e-01, 8.11133236e-02, 6.90939277e-02, 1.38468742e-01,
       2.73118585e-01, 1.41145051e-01, 1.83320075e-01, 2.18493655e-01,
       1.47717610e-01, 2.30565161e-01, 1.21856146e-01, 5.07918671e-02,
       3.43493596e-02, 2.71688793e-02, 1.90487862e-01, 2.05113947e-01,
       1.62328467e-01, 1.02677479e-01, 1.80149660e-01, 1.49053946e-01,
       1.25783831e-01, 1.22907810e-01, 1.00204602e-01, 2.88769484e-01,
       1.44644231e-01, 1.07576691e-01, 9.00387987e-02, 1.73878640e-01,
       8.89012069e-02, 9.63355154e-02, 1.48890033e-01, 2.81003416e-01,
       2.88769484e-01, 2.50547796e-01, 1.90799892e-01, 8.37397575e-02,
       1.00705609e-01, 6.38805479e-02, 9.38119292e-02, 1.48662314e-01,
       2.88769484e-01, 1.02220066e-01, 9.91761610e-02, 6.94791228e-02,
       2.03215573e-02, 1.76793095e-02, 1.37523741e-01, 2.82440484e-01,
       1.84484050e-01, 1.14455320e-01, 1.61934525e-01, 9.12076086e-02,
       7.45325238e-02, 3.98751386e-02, 9.59422216e-02, 1.30612269e-01,
       2.82440484e-01, 2.82440484e-01, 2.82440484e-01, 2.41605297e-01,
       1.84917554e-01, 1.09125465e-01, 2.68520359e-02, 2.38818675e-02,
       7.52713308e-02, 1.60601705e-01, 1.27254009e-01, 1.88714236e-01,
       2.82440484e-01, 2.32961491e-01, 8.77049565e-02, 3.90801169e-02,
       1.78026594e-02, 6.54506087e-02, 1.71419591e-01, 2.68694967e-01,
       2.82440484e-01, 1.76160112e-01, 8.32928196e-02, 4.81809117e-02,
       6.68691322e-02, 1.04157992e-01, 3.81196700e-02, 9.31120142e-02,
       2.90397644e-01, 2.90397644e-01, 1.88832328e-01, 8.47190991e-02,
       4.07825075e-02, 8.09758157e-02, 6.97352141e-02, 4.53853309e-02,
       1.23583287e-01, 2.90397644e-01, 1.81648597e-01, 2.90397644e-01,
       1.08747832e-01, 5.54019846e-02, 4.17486504e-02, 9.43870936e-03,
       1.80213284e-02, 9.74263400e-02, 2.90397644e-01, 2.90397644e-01,
       2.90397644e-01, 1.13339916e-01, 4.28747274e-02, 3.22552361e-02,
       1.06225032e-02, 3.08132302e-02, 1.96823806e-01, 2.90397644e-01,
       2.61532396e-01, 2.00308532e-01, 9.67322960e-02, 7.61381015e-02,
       5.45883030e-02, 6.89815581e-02, 5.72123267e-02, 1.25468239e-01,
       2.34840482e-01, 1.94283441e-01, 2.39475116e-01, 1.74695820e-01,
       1.59017175e-01, 6.34609833e-02, 8.31177682e-02, 5.88534735e-02,
       9.17550549e-02, 1.01098455e-01, 1.51795030e-01, 2.95576572e-01,
       2.33425766e-01, 1.07620761e-01, 4.67100926e-02, 3.15599740e-02,
       4.87982780e-02, 1.47419408e-01, 2.71312207e-01, 2.80438513e-01,
       2.95576572e-01, 2.79205322e-01, 2.21751764e-01, 1.17184751e-01,
       1.48519650e-01, 1.41848519e-01, 8.84319842e-02, 6.90137595e-02,
       1.92123979e-01, 2.47305989e-01, 1.73258543e-01, 1.48206517e-01,
       5.02318516e-02, 9.65766385e-02, 8.32052454e-02, 1.12924539e-01,
       9.45324302e-02, 1.74526602e-01, 2.88070679e-01, 1.69279233e-01,
       1.12831607e-01, 2.71100756e-02, 5.84612079e-02, 6.25401512e-02,
       1.16636254e-01, 1.57584921e-01, 1.96099818e-01, 2.34840468e-01,
       1.37345731e-01, 1.52504876e-01, 1.96647584e-01, 2.88722605e-01,
       2.88722605e-01, 1.51872754e-01, 9.64130312e-02, 1.73655137e-01,
       1.28407121e-01, 7.55565614e-02, 9.21078250e-02, 1.25280529e-01,
       2.88722605e-01, 1.91273794e-01, 1.38733566e-01, 1.76825851e-01,
       1.47326663e-01, 2.10426748e-01, 1.14806294e-01, 8.10776949e-02,
       3.00330464e-02, 1.37301050e-02, 5.05022705e-02, 1.39674842e-01,
       3.28839153e-01, 3.28839153e-01, 3.28839153e-01, 2.15983734e-01,
       8.78274292e-02, 2.95661762e-02, 2.73543540e-02, 2.88529806e-02,
       7.05674589e-02, 3.15905541e-01, 3.28839153e-01, 1.21863604e-01,
       6.04151860e-02, 4.30046581e-02, 3.29574905e-02, 5.68670183e-02,
       4.14551757e-02, 1.27178043e-01, 2.41863489e-01, 2.17872679e-01,
       1.71765462e-01, 1.11878544e-01, 4.85327952e-02, 2.18118262e-02,
       8.35127607e-02, 3.56247649e-02, 9.96365398e-02, 1.88745916e-01,
       2.61189193e-01, 3.49970877e-01, 3.49970877e-01, 2.49459893e-01,
       5.57799302e-02, 4.46664616e-02, 5.69885336e-02, 4.31128927e-02,
       8.16408545e-02, 2.10768402e-01, 3.39334607e-01, 3.49970877e-01,
       2.36436367e-01, 8.16634744e-02, 3.62596661e-02, 1.11496434e-01,
       9.56523269e-02, 5.89450076e-02, 1.31961063e-01, 2.22804889e-01,
       1.84214666e-01, 9.86386240e-02, 3.51640433e-02, 1.29444584e-01,
       6.68128803e-02, 9.39145386e-02, 7.56193027e-02, 1.50103733e-01,
       1.70715064e-01, 1.59764022e-01, 1.04574904e-01, 2.95886993e-02,
       1.06160372e-01, 1.15244418e-01, 1.32945925e-01, 8.89000595e-02,
       1.20784923e-01, 3.51173699e-01, 1.47862539e-01, 1.82752609e-01,
       7.83235729e-02, 5.71705438e-02, 8.67545605e-02, 1.04790322e-01,
       7.68679082e-02, 2.18957573e-01, 3.51173699e-01, 1.13707684e-01,
       1.04682401e-01, 7.02974126e-02, 9.49365199e-02, 6.10484406e-02,
       8.67872611e-02, 1.19110964e-01, 2.38156065e-01, 1.64504379e-01,
       2.06851527e-01, 1.37195796e-01, 3.59207802e-02, 8.63940194e-02,
       8.08172151e-02, 8.94602984e-02, 1.04010232e-01, 1.25668168e-01,
       3.51173699e-01, 3.10638249e-01, 1.28694698e-01, 7.11823851e-02,
       9.91744325e-02, 9.23347473e-02, 9.05045941e-02, 1.01825483e-01,
       2.75452971e-01, 2.22364292e-01, 1.16463974e-01, 4.40692194e-02,
       5.31696901e-02, 6.85653538e-02, 3.36802788e-02, 4.68883924e-02,
       8.51952359e-02, 1.14658520e-01, 1.74693123e-01, 1.31025791e-01,
       6.03274330e-02, 7.55488425e-02, 1.34892821e-01, 1.11770950e-01,
       8.75557959e-02, 1.07312605e-01, 9.95395109e-02, 4.14969653e-01,
       2.10018486e-01, 4.46127579e-02, 4.70400602e-02, 5.71397059e-02,
       3.92107330e-02, 3.31800878e-02, 6.87630624e-02, 3.31716925e-01,
       4.14969653e-01, 2.69539863e-01, 7.54295811e-02, 4.86226827e-02,
       8.21951032e-02, 4.49397303e-02, 2.89987214e-02, 8.32178071e-02,
       4.14969653e-01, 5.86130656e-02, 5.43232448e-02, 4.34894525e-02,
       4.77221347e-02, 8.49213749e-02, 7.50606582e-02, 5.61165661e-02,
       6.80128410e-02, 5.08733466e-02, 7.79695958e-02, 1.29125506e-01,
       1.72132641e-01, 8.42973888e-02, 8.20269883e-02, 8.56080055e-02,
       7.83317387e-02, 8.60233679e-02, 6.88784197e-02, 4.11282927e-01,
       4.11282927e-01, 5.48930466e-02, 4.17666212e-02, 6.28673807e-02,
       5.37291691e-02, 3.50498036e-02, 4.99758385e-02, 2.10310340e-01,
       4.11282927e-01, 4.11282927e-01, 2.29882315e-01, 1.10798202e-01,
       1.16676360e-01, 1.09913349e-01, 1.01860546e-01, 8.51845518e-02,
       1.60266876e-01, 3.08168046e-02, 1.75520539e-01, 2.21188799e-01,
       4.51545343e-02, 2.46657450e-02, 1.69816986e-02, 1.77563727e-02,
       2.26166323e-02, 2.21794844e-02, 5.98236509e-02, 3.26550514e-01,
       3.26550514e-01, 4.30040434e-02, 4.75314371e-02, 1.88246332e-02,
       1.46891428e-02, 3.42769213e-02, 1.87001023e-02, 1.97703779e-01,
       3.26550514e-01, 3.26550514e-01, 1.65381953e-01, 1.38658077e-01,
       4.06069756e-02, 2.94662267e-02, 3.14669199e-02, 4.16043065e-02,
       7.71545991e-02, 3.26550514e-01, 3.26550514e-01, 2.04844430e-01,
       3.26550514e-01, 1.16829775e-01, 2.14756392e-02, 4.93722185e-02,
       1.44136343e-02, 1.89240307e-01, 3.40505391e-01, 2.92575449e-01,
       3.11740693e-02, 5.47855347e-02, 2.49154158e-02, 2.07496528e-02,
       3.04285549e-02, 2.66496502e-02, 2.78870255e-01, 3.40505391e-01,
       1.04580402e-01, 5.93558103e-02, 3.13950747e-01, 4.97423485e-02,
       7.09854579e-03, 1.35002369e-02, 4.10777703e-02, 5.69902807e-02,
       3.40505391e-01, 2.01953024e-01, 1.27274841e-01, 3.40505391e-01,
       1.24916829e-01, 3.18771489e-02, 4.40867208e-02, 1.13371685e-02,
       2.77286954e-02, 6.31607920e-02, 2.95733623e-02, 6.81489632e-02,
       3.40505391e-01, 6.20583482e-02, 1.33702382e-02, 1.56722926e-02,
       1.18420329e-02, 2.44670987e-01, 3.72876406e-01, 1.24102563e-01,
       1.20248802e-01, 3.72876406e-01, 1.06925644e-01, 5.27456123e-03,
       9.40645020e-03, 3.40053886e-02, 3.17456990e-01, 2.02345014e-01,
       7.96492398e-02, 1.03768937e-01, 3.58198106e-01, 5.97328842e-02,
       4.41224640e-03, 5.99760795e-03, 3.30917425e-02, 7.58210383e-03,
       1.31688109e-02, 1.44694364e-02, 9.16358754e-02, 3.72876406e-01,
       1.14174664e-01, 9.42453463e-03, 1.13012642e-02, 6.06363546e-03,
       0., 7.17904128e-04, 1.45154130e-02, 1.38322875e-01,
       3.72876406e-01, 6.55351132e-02, 7.57696899e-03, 3.79616604e-03,
       0., 3.09306294e-01, 1.08448789e-01, 1.08653940e-01,
       2.09910065e-01, 3.61641258e-01, 5.80081567e-02, 4.50141635e-03,
       1.21714324e-02, 6.55810982e-02, 1.04614452e-01, 5.17207347e-02,
       6.99065551e-02, 2.51904428e-01, 3.61641258e-01, 8.84777531e-02,
       2.90403771e-03, 6.20196760e-03, 8.24417248e-02, 0.,
       5.76297112e-04, 1.26364771e-02, 2.95703143e-01, 3.61641258e-01,
       4.66143899e-02, 2.30731443e-03, 9.62539052e-04, 0., 0., 0.,
       1.04579777e-02, 3.29980850e-01, 3.61641258e-01, 8.18820447e-02,
       9.36377211e-04, 0., 0., 5.93315661e-02, 4.96795028e-02,
       1.12378575e-01, 3.67786586e-01, 4.54218119e-01, 1.54855996e-01,
       1.70332287e-02, 1.15245758e-02, 6.47457540e-02, 3.64444964e-02,
       5.36998138e-02, 8.38128403e-02, 1.67568266e-01, 2.08115906e-01,
       1.01003237e-01, 5.26575148e-02, 2.50350665e-02, 2.66185645e-02,
       6.34252280e-03, 7.10684294e-03, 3.56016606e-02, 4.43034947e-01,
       4.54218119e-01, 1.37653604e-01, 1.15675488e-02, 2.18096701e-03,
       4.54252167e-03, 7.40216225e-02, 5.39529212e-02, 5.56061119e-02,
       1.42061487e-01, 2.17153504e-01, 6.13875873e-02, 3.57626230e-02,
       2.47929506e-02, 4.68014926e-02, 3.22876543e-01, 2.23961115e-01,
       1.30113378e-01, 7.68779963e-02, 1.02372341e-01, 6.96804374e-02,
       6.77818954e-02, 1.38289824e-01, 2.77162433e-01, 3.22876543e-01,
       3.22876543e-01, 1.12862736e-01, 7.26713166e-02, 7.29185343e-02,
       6.07933886e-02, 6.51455149e-02, 9.24366638e-02, 3.22876543e-01,
       1.50693521e-01, 1.14178896e-01, 1.58240959e-01, 2.62478352e-01,
       1.44414991e-01, 6.07760772e-02, 5.73909879e-02, 1.02727763e-01,
       1.50929034e-01, 1.91584751e-01, 1.07166521e-01, 1.02542862e-01,
       1.71346396e-01, 1.98465750e-01, 8.76318738e-02, 5.95972985e-02,
       5.44695072e-02, 1.36301950e-01, 3.22033823e-01, 3.22033823e-01,
       7.44110495e-02, 6.54664040e-02, 4.02506590e-02, 5.02208546e-02,
       6.70498013e-02, 8.88906792e-02, 3.22033823e-01, 2.83876568e-01,
       1.23154931e-01, 8.19806084e-02, 1.74488097e-01, 1.16191268e-01,
       1.83006465e-01, 1.92154393e-01, 2.45596111e-01, 2.34428898e-01,
       1.75590366e-01, 6.88078776e-02, 7.20341802e-02, 1.01114258e-01,
       1.10460632e-01, 1.32937402e-01, 1.15988038e-01, 1.14476018e-01,
       1.53522432e-01, 1.05555303e-01, 5.98971024e-02, 7.73269385e-02,
       1.15541577e-01, 7.66400546e-02, 1.88193575e-01, 1.92323580e-01,
       2.29379982e-01, 1.76803619e-01, 6.27167970e-02, 1.62495822e-01,
       2.05584615e-01, 2.48050556e-01, 1.22554503e-01, 1.32915840e-01,
       1.88657343e-01, 2.22190663e-01, 1.38366520e-01, 1.66145608e-01,
       1.34463578e-01, 2.90907651e-01, 2.90907651e-01, 1.37314394e-01,
       7.72054121e-02, 1.82063237e-01, 2.89069116e-01, 2.41609842e-01,
       5.70846833e-02, 7.87188783e-02, 7.04150200e-02, 8.22279230e-02,
       7.67216310e-02, 9.47445557e-02, 1.54524475e-01, 2.42684737e-01,
       1.20566308e-01, 1.28832355e-01, 1.36906192e-01, 1.06998056e-01,
       1.50605381e-01, 1.34660393e-01, 6.16971999e-02, 1.28446728e-01,
       2.29700059e-01, 1.31568611e-01, 3.25290620e-01, 6.34487346e-02,
       1.10197961e-01, 1.25029489e-01, 7.96908513e-02, 4.96664830e-02,
       9.82962847e-02, 2.42509410e-01, 3.25290620e-01, 3.25290620e-01,
       1.18246213e-01, 6.95956945e-02, 5.54730147e-02, 8.24128240e-02,
       4.56492044e-02, 8.58480781e-02, 2.73662359e-01, 3.25290620e-01,
       1.74814045e-01, 8.87943357e-02, 7.12243170e-02, 1.10075265e-01,
       1.05800405e-01, 6.76212609e-02, 6.96751475e-02, 1.24282308e-01,
       1.84704944e-01, 2.37764195e-01, 1.17921360e-01, 1.12524800e-01,
       8.63182098e-02, 9.63303149e-02, 4.19553928e-02, 6.73683584e-02,
       1.57995299e-01, 3.07334632e-01, 3.32625300e-01, 1.52961224e-01,
       7.77308419e-02, 4.01607528e-02, 8.28120261e-02, 4.34780121e-02,
       6.17977977e-02, 2.59743720e-01, 3.32625300e-01, 3.32625300e-01,
       1.77872151e-01, 6.87459707e-02, 5.54402359e-02, 8.00657868e-02,
       3.11172325e-02, 5.57121374e-02, 1.98257431e-01, 3.32625300e-01,
       2.06307769e-01, 1.40593559e-01, 1.11988842e-01, 5.10354042e-02,
       1.13173507e-01, 4.94340695e-02, 4.84786816e-02, 1.77555218e-01,
       2.46017963e-01, 2.33026400e-01, 1.27132595e-01, 7.15208128e-02,
       5.54654151e-02, 1.03732169e-01, 6.19793236e-02, 5.73139973e-02,
       1.41989008e-01, 2.23548055e-01, 3.44411999e-01, 2.63920546e-01,
       8.44972283e-02, 5.60858473e-02, 7.87822157e-02, 4.50044759e-02,
       1.00479946e-01, 1.38224751e-01, 3.44411999e-01, 3.44411999e-01,
       2.97225356e-01, 1.40094385e-01, 6.24391884e-02, 5.79770394e-02,
       6.96815997e-02, 9.68738347e-02, 1.51459321e-01, 3.18570197e-01,
       1.70566261e-01, 7.25633428e-02, 5.93135618e-02, 7.88217038e-02,
       8.57598037e-02, 9.08112526e-02, 1.03249647e-01, 1.07026957e-01,
       1.81727380e-01, 1.77151039e-01, 1.30104721e-01, 1.93300962e-01,
       8.93266201e-02, 6.77322075e-02, 1.24172658e-01, 1.13951027e-01,
       9.96059999e-02, 1.34284168e-01, 3.33593994e-01, 1.58417001e-01,
       1.38393983e-01, 6.33712336e-02, 2.14414876e-02, 4.53855954e-02,
       9.02328268e-02, 2.37444445e-01, 2.85748631e-01, 3.33593994e-01,
       2.27747813e-01, 1.10001184e-01, 6.17021136e-02, 2.19507739e-02,
       4.47702780e-02, 1.69039637e-01, 3.33593994e-01, 2.62484848e-01,
       2.00587302e-01, 1.07632250e-01, 1.99676245e-01, 6.93290308e-02,
       6.55056983e-02, 8.24950039e-02, 1.00359567e-01, 1.09162293e-01,
       1.18827507e-01, 2.66709834e-01, 1.10844329e-01, 9.56839472e-02,
       5.67084514e-02, 9.24260765e-02, 8.06759223e-02, 1.00274719e-01,
       9.01693106e-02, 1.59335330e-01, 3.23095113e-01, 2.39323184e-01,
       1.17242441e-01, 6.09518886e-02, 5.28972894e-02, 7.46951178e-02,
       1.19602807e-01, 1.45218730e-01, 2.42504224e-01, 3.23095113e-01,
       2.11152926e-01, 1.52531713e-01, 1.49282023e-01, 2.43484840e-01,
       2.60521501e-01, 1.15407027e-01, 8.00154060e-02, 1.85376078e-01,
       2.15605065e-01, 1.16924241e-01, 7.52528608e-02, 4.71019670e-02,
       9.42605734e-02, 5.67624979e-02, 6.71863109e-02, 5.02656661e-02,
       1.78589657e-01, 1.69808701e-01, 1.23804741e-01, 8.44355151e-02,
       1.13320790e-01, 2.23992392e-01, 1.92850247e-01, 1.54160768e-01,
       1.08801410e-01, 1.81977138e-01, 6.73926845e-02, 4.99674380e-02,
       5.57637140e-02, 1.30078763e-01, 2.93697536e-01, 2.92419970e-01,
       1.37253895e-01, 9.99844968e-02, 1.01998895e-01, 3.91920134e-02,
       3.92907113e-02, 3.78455222e-02, 8.42705518e-02, 2.49194175e-01,
       1.94841430e-01, 1.83579817e-01, 2.93697536e-01, 2.02393189e-01,
       1.54041260e-01, 7.66040385e-02, 7.43988678e-02, 8.12525749e-02,
       1.72405854e-01, 1.91211239e-01, 1.37867704e-01, 1.03994176e-01,
       1.25277728e-01, 2.93697536e-01, 9.43085253e-02, 6.68772310e-02,
       5.37274741e-02, 9.26128775e-02, 1.14529073e-01, 1.90088958e-01,
       2.93697536e-01, 2.93697536e-01, 5.77305630e-02, 4.83914241e-02,
       2.99114436e-02, 2.40173563e-02, 6.33492619e-02, 2.20304839e-02,
       1.02149583e-01, 2.82176554e-01, 1.25128746e-01, 5.08345552e-02,
       6.23620860e-02, 3.49771008e-02, 3.91638391e-02, 9.45782736e-02,
       2.52108499e-02, 5.42017482e-02, 1.26340553e-01, 6.74616918e-02,
       2.93826401e-01, 5.91608509e-02, 2.98305061e-02, 1.66770797e-02,
       2.76433434e-02, 7.96913262e-03, 1.48807824e-01, 3.70254248e-01,
       3.70254248e-01, 3.70254248e-01, 1.57438576e-01, 4.69734930e-02,
       4.32275757e-02, 6.22397549e-02, 9.94187593e-03, 6.65576160e-02,
       3.70254248e-01, 3.70254248e-01, 5.85412011e-02, 5.36548086e-02,
       3.18366922e-02, 3.63387913e-02, 6.89107850e-02, 2.43715141e-02,
       3.07719167e-02, 3.14570852e-02, 3.30122821e-02, 1.23674646e-01,
       2.48163387e-01, 8.41888785e-02, 2.81313881e-02, 5.60061336e-02,
       2.57245526e-02, 3.20231095e-02, 1.89222861e-02, 3.90172489e-02,
       4.10246938e-01, 3.41645122e-01, 1.33364156e-01, 5.42541854e-02,
       6.35093302e-02, 4.80546206e-02, 3.44665274e-02, 7.10850358e-02,
       2.14295506e-01, 3.40508789e-01, 4.10246938e-01, 4.10246938e-01,
       1.27369300e-01, 6.53730184e-02, 5.75853363e-02, 5.84538057e-02,
       3.96595262e-02, 2.04488367e-01, 1.88602209e-01, 2.27402389e-01,
       4.15687151e-02, 3.97592550e-03, 1.01013975e-02, 5.13203768e-03,
       7.72512238e-03, 1.19527923e-02, 4.04024236e-02, 3.31899792e-01,
       2.98872143e-01, 4.79104333e-02, 1.02085285e-02, 7.44300941e-03,
       9.85740498e-03, 6.82034995e-03, 1.99411605e-02, 9.61190611e-02,
       3.31899792e-01, 3.31899792e-01, 1.83594525e-01, 2.80486774e-02,
       6.98643457e-03, 4.20087576e-03, 1.88138075e-02, 7.34845921e-02,
       2.42411986e-01, 3.31899792e-01, 3.31899792e-01, 9.52845812e-02,
       1.63908172e-02, 6.85371784e-03, 9.61735263e-04, 2.32450068e-02,
       1.84866741e-01, 3.31899792e-01, 3.25240433e-01, 2.56861359e-01,
       6.52883723e-02, 1.78953204e-02, 9.63415392e-03, 8.13798886e-03,
       3.96074494e-03, 1.40575012e-02, 1.30088151e-01, 3.25240433e-01,
       1.64274499e-01, 3.15305777e-02, 9.64977127e-03, 3.75917368e-02,
       1.80945452e-02, 2.13557091e-02, 4.31434214e-02, 3.25240433e-01,
       3.25240433e-01, 3.25240433e-01, 1.64383650e-01, 5.20397127e-02,
       3.17279510e-02, 1.25131914e-02, 1.21901762e-02, 8.64314809e-02,
       2.36397490e-01, 3.25240433e-01, 1.71728313e-01, 7.68907145e-02,
       3.71261314e-02, 2.21811906e-01, 7.83861205e-02, 3.22690085e-02,
       4.90683913e-02, 2.28263125e-01, 3.41498166e-01, 3.41498166e-01,
       1.57885440e-02, 1.17186271e-02, 4.89369221e-02, 2.19791997e-02,
       4.12995853e-02, 5.96252456e-02, 2.97425091e-01, 3.41498166e-01,
       3.41498166e-01, 5.91365770e-02, 3.63138616e-02, 3.22773457e-02,
       1.26659805e-02, 2.53852066e-02, 2.23280489e-02, 8.43012258e-02,
       3.41498166e-01, 2.38318577e-01, 1.85798611e-02, 2.19302122e-02,
       2.86169052e-01, 9.70359072e-02, 5.44504784e-02, 6.62369877e-02,
       1.98159590e-01, 1.39179647e-01, 2.79629856e-01, 1.53201008e-02,
       2.64820606e-02, 5.66367693e-02, 2.35862099e-02, 3.48630324e-02,
       2.74811890e-02, 4.94313613e-02, 2.46502876e-01, 3.59711260e-01,
       2.12302908e-01, 1.27326265e-01, 2.80040920e-01, 5.80808558e-02,
       1.86365265e-02, 1.83544792e-02, 4.05272357e-02, 4.14993241e-02,
       1.22947872e-01, 1.92447841e-01, 1.64451838e-01, 3.59711260e-01,
       2.71247774e-01, 1.17587140e-02, 1.73086002e-02, 7.69170607e-03,
       4.20796126e-02, 6.23630844e-02, 6.24962058e-03, 4.98960763e-02,
       3.52756828e-01, 7.25801364e-02, 2.97024176e-02, 1.89807601e-02,
       1.91000327e-02, 2.93102604e-03, 2.42647552e-03, 2.55454495e-03,
       5.79170026e-02, 3.59711260e-01, 3.22530985e-01, 1.14053600e-02,
       5.76081499e-03, 1.13246089e-03, 1.80248022e-02, 3.94325070e-02,
       4.98184226e-02, 1.27214700e-01, 3.99895787e-01, 3.43731195e-01,
       2.06866525e-02, 1.66817270e-02, 9.25489608e-03, 2.14205012e-02,
       1.97853651e-02, 1.90085117e-02, 7.72424266e-02, 3.99895787e-01,
       8.72814953e-02, 1.25063388e-02, 9.30054858e-03, 1.01314699e-02,
       6.62396103e-03, 2.67826207e-03, 6.89621642e-03, 5.05682863e-02,
       3.99895787e-01, 3.99895787e-01, 2.86572278e-02, 9.79886483e-03,
       5.28574735e-03, 1.76088717e-02, 8.16140883e-03, 1.52445203e-02,
       8.39024335e-02, 3.99895787e-01, 1.70749530e-01, 2.78933886e-02,
       2.10907478e-02, 1.28017263e-02, 6.75113546e-03, 9.32619534e-03,
       1.54737886e-02, 1.19988106e-01, 4.68787014e-01, 8.26215222e-02,
       4.40367870e-03, 4.09374060e-03, 3.28198727e-03, 0., 0.,
       2.17703544e-02, 1.70885235e-01, 4.68787014e-01, 6.96444958e-02,
       2.11858097e-03, 1.16441376e-03, 0., 7.41409138e-03,
       3.67710181e-03, 1.09583931e-02, 1.07731491e-01, 4.68787014e-01,
       1.55951440e-01, 4.01553605e-03, 1.00450264e-02, 5.31426724e-03,
       0., 0., 6.10773824e-03, 9.67253447e-02, 4.68787014e-01,
       1.20164014e-01, 2.23132875e-03, 0., 0., 0., 0., 1.96617786e-02,
       2.68882871e-01, 4.04844373e-01, 9.54137221e-02, 9.05059930e-03,
       2.67307187e-04, 0., 0., 0., 1.40042501e-02, 3.09698582e-01,
       4.04844373e-01, 1.11212350e-01, 1.34759322e-02, 0., 0., 0., 0.,
       9.17987339e-03, 1.70685589e-01, 4.04844373e-01, 1.39073744e-01,
       1.28083173e-02, 0., 0., 0., 4.77443886e-04, 1.90384872e-02,
       2.87416995e-01, 4.04844373e-01, 1.33486107e-01, 1.78035107e-02,
       5.15604916e-04, 0., 5.99508500e-03, 9.71617922e-03,
       4.85172160e-02, 3.74597549e-01, 4.79178011e-01, 1.20291904e-01,
       1.26677621e-02, 2.24614819e-03, 5.57620823e-03, 4.59839590e-02,
       2.84102708e-02, 6.28530011e-02, 1.04669765e-01, 1.90436959e-01,
       7.30409697e-02, 3.74667384e-02, 2.41366867e-02, 4.15281467e-02,
       3.00557376e-03, 1.84319485e-02, 8.25162381e-02, 4.01837975e-01,
       4.79178011e-01, 1.79515094e-01, 2.97597144e-02, 3.74628068e-03,
       3.00557376e-03, 2.49573179e-02, 3.98351513e-02, 9.70235765e-02,
       1.54912323e-01, 2.38395512e-01, 1.27784058e-01, 5.98719455e-02,
       2.40100995e-02, 2.58326735e-02, 8.52211043e-02, 8.18434581e-02,
       2.53048360e-01, 3.03235501e-01, 2.57066458e-01, 1.04087688e-01,
       1.01809390e-01, 1.13160580e-01, 1.01595253e-01, 6.43982664e-02,
       6.21340573e-02, 1.59783751e-01, 2.34084219e-01, 2.43053049e-01,
       1.02285795e-01, 1.04387678e-01, 8.58578309e-02, 7.40778595e-02,
       2.39306033e-01, 1.65255502e-01, 1.10300384e-01, 1.46834627e-01,
       2.03073561e-01, 1.39954329e-01, 1.70344606e-01, 2.31549725e-01,
       3.03235501e-01, 1.83564544e-01, 1.10597685e-01, 1.05407283e-01,
       1.10891089e-01, 1.33590028e-01, 1.00729682e-01, 1.54470727e-01,
       1.73947841e-01, 1.72703236e-01, 8.36344808e-02, 7.28558823e-02,
       1.24295063e-01, 1.79925099e-01, 1.79554895e-01, 1.91731498e-01,
       1.87622458e-01, 1.62248299e-01, 1.08513676e-01, 8.95442963e-02,
       1.02862686e-01, 9.07403827e-02, 1.72985226e-01, 2.09463358e-01,
       2.81602710e-01, 1.81034341e-01, 1.78667918e-01, 1.62947774e-01,
       1.91677272e-01, 1.10271141e-01, 1.48420841e-01, 1.26977250e-01,
       1.01315148e-01, 1.33011997e-01, 2.21633613e-01, 2.13066116e-01,
       1.80482879e-01, 1.50358975e-01, 1.53610855e-01, 1.12716518e-01,
       1.37848303e-01, 1.75058365e-01, 2.15551555e-01, 2.26643875e-01,
       1.93377018e-01, 1.93033054e-01, 8.09503794e-02, 1.19072795e-01,
       5.13911918e-02, 1.40056580e-01, 1.71097517e-01, 1.34383067e-01,
       1.18430480e-01, 1.80450812e-01, 1.20242976e-01, 9.69858244e-02,
       1.34950697e-01, 1.00458026e-01, 1.94630384e-01, 1.72705576e-01,
       9.04987380e-02, 1.99412242e-01, 3.32773894e-01, 1.19867712e-01,
       1.14444055e-01, 1.81592882e-01, 6.26109689e-02, 1.54317468e-01,
       1.57383949e-01, 1.87723562e-01, 1.79186970e-01, 1.70995712e-01,
       1.28491670e-01, 1.30758509e-01, 1.43569633e-01, 9.63709205e-02,
       1.88379899e-01, 1.24020107e-01, 1.87778309e-01, 2.99828082e-01,
       3.32773894e-01, 1.46256134e-01, 9.16231200e-02, 1.07776828e-01,
       1.13538623e-01, 1.74837723e-01, 1.56654507e-01, 1.00973859e-01,
       1.73281059e-01, 3.31184924e-01, 1.37550175e-01, 1.26109406e-01,
       1.45158827e-01, 1.64617807e-01, 1.76766112e-01, 1.34903893e-01,
       7.24190623e-02, 1.08432680e-01, 1.49354473e-01, 1.56342536e-01,
       9.50945467e-02, 8.69030729e-02, 9.08073038e-02, 1.05319388e-01,
       1.29408747e-01, 1.23249397e-01, 2.64621258e-01, 3.31184924e-01,
       2.30448365e-01, 1.83436334e-01, 1.22412883e-01, 9.32523608e-02,
       1.15522496e-01, 9.56538767e-02, 8.70243311e-02, 1.89881384e-01,
       2.45518446e-01, 2.79583633e-01, 1.87715322e-01, 1.92095444e-01,
       1.57605350e-01, 1.13803126e-01, 1.46048039e-01, 7.43902177e-02,
       7.45197088e-02, 1.74965963e-01, 1.50497153e-01, 1.84516490e-01,
       1.97075263e-01, 1.76151440e-01, 1.15935355e-01, 1.20983168e-01,
       9.28064585e-02, 6.99573755e-02, 1.70382053e-01, 1.88056916e-01,
       3.45694751e-01, 1.51146799e-01, 6.98334277e-02, 1.17993481e-01,
       9.38194543e-02, 5.71934767e-02, 9.69328284e-02, 2.03672081e-01,
       2.45989025e-01, 3.52179796e-01, 2.06323132e-01, 1.29982203e-01,
       1.47097856e-01, 1.06838882e-01, 4.94241491e-02, 3.59668657e-02,
       1.00188307e-01, 2.75764018e-01, 8.41430128e-02, 7.51668662e-02,
       1.52839616e-01, 1.64115116e-01, 9.92238522e-02, 1.67928323e-01,
       1.16555758e-01, 1.38923898e-01, 1.43281221e-01, 1.18640706e-01,
       1.60530046e-01, 2.27961421e-01, 1.88477099e-01, 8.92783254e-02,
       2.03809157e-01, 2.02945724e-01, 1.72206327e-01, 1.67506203e-01,
       2.60852337e-01, 1.25720501e-01, 1.17918812e-01, 1.78376451e-01,
       1.67048007e-01, 1.21938772e-01, 7.48944953e-02, 9.98206437e-02,
       1.66254714e-01, 2.13100538e-01, 2.35644549e-01, 1.27442390e-01,
       1.94899604e-01, 2.40111575e-01, 1.93108723e-01, 1.45006284e-01,
       1.75472036e-01, 2.20918342e-01, 2.05654740e-01, 1.06226347e-01,
       1.46495000e-01, 9.06605199e-02, 7.81934932e-02, 8.36920217e-02,
       1.33965671e-01, 1.52389824e-01, 1.55922264e-01, 3.14669132e-01,
       7.19331726e-02, 7.58087337e-02, 6.35621548e-02, 1.17131926e-01,
       1.07139207e-01, 1.58774510e-01, 1.70065314e-01, 2.37444431e-01,
       2.29473099e-01, 2.13897139e-01, 1.22314505e-01, 1.02841951e-01,
       1.00585781e-01, 9.93952230e-02, 8.23089555e-02, 1.40358120e-01,
       2.04772428e-01, 3.14669132e-01, 3.14669132e-01, 1.38330147e-01,
       7.22494498e-02, 7.73134157e-02, 8.50923359e-02, 1.28022179e-01,
       2.07480267e-01, 2.79131591e-01, 2.52251416e-01, 7.64640644e-02,
       6.27443790e-02, 4.93045859e-02, 7.21606910e-02, 6.31294996e-02,
       6.95236474e-02, 7.42407143e-02, 2.13507533e-01, 2.03930408e-01,
       1.72085091e-01, 1.08623125e-01, 1.21954426e-01, 1.66328311e-01,
       7.51774311e-02, 6.16604798e-02, 9.60653499e-02, 1.81521326e-01,
       3.24773252e-01, 3.17823082e-01, 1.06469654e-01, 4.94421422e-02,
       4.52882051e-02, 3.93475257e-02, 5.44815920e-02, 1.06330678e-01,
       2.47368440e-01, 3.24773252e-01, 3.15371513e-01, 1.33462608e-01,
       9.06653851e-02, 8.13220218e-02, 3.08104157e-02, 1.76374000e-02,
       1.86979666e-01, 3.24773252e-01, 2.20094532e-01, 1.24927662e-01,
       1.15204275e-01, 1.59024686e-01, 2.11183295e-01, 1.00045286e-01,
       7.04797506e-02, 9.22100618e-02, 1.20971479e-01, 3.04126501e-01,
       8.49475786e-02, 8.55189115e-02, 1.15449205e-01, 1.32728457e-01,
       8.25958848e-02, 9.62583274e-02, 3.04126501e-01, 3.04126501e-01,
       1.28644660e-01, 9.00457650e-02, 5.79197221e-02, 8.84096846e-02,
       1.02902427e-01, 1.55956537e-01, 1.26273632e-01, 1.92774758e-01,
       2.66849071e-01, 1.81566000e-01, 1.54491067e-02, 2.90050097e-02,
       6.13915473e-02, 8.04659873e-02, 2.52516925e-01, 2.23145574e-01,
       2.23983809e-01, 2.63677120e-01, 3.54301900e-01, 2.10172329e-02,
       1.61666572e-02, 1.62432268e-02, 6.79518422e-03, 1.44580863e-02,
       6.01678491e-02, 3.54301900e-01, 3.54301900e-01, 3.54301900e-01,
       8.02995563e-02, 1.66783500e-02, 1.40521741e-02, 1.38077177e-02,
       1.86003726e-02, 4.04801890e-02, 3.54301900e-01, 3.54301900e-01,
       1.45326003e-01, 6.28391048e-03, 1.37176299e-02, 1.73543748e-02,
       1.88495666e-02, 9.59133580e-02, 1.13904856e-01, 1.18938357e-01,
       1.95544496e-01, 1.98334515e-01, 1.57198776e-02, 8.44305195e-03,
       1.16858482e-02, 2.58470383e-02, 9.41627398e-02, 9.82523412e-02,
       1.10849947e-01, 2.48013839e-01, 3.37999344e-01, 2.53919780e-01,
       1.25452951e-01, 3.43051143e-02, 4.22828197e-02, 2.67817266e-02,
       3.28281224e-02, 7.50401169e-02, 3.15082282e-01, 3.19868445e-01,
       3.37999344e-01, 3.37999344e-01, 1.38991177e-01, 7.83952251e-02,
       2.99757067e-02, 9.61990803e-02, 1.14995196e-01, 3.37999344e-01,
       1.21172763e-01, 2.81544663e-02, 3.07920836e-02, 1.43505856e-02,
       2.60194167e-02, 4.05484103e-02, 5.48896678e-02, 6.42990321e-02,
       1.18635535e-01, 1.20970920e-01, 4.99817580e-02, 6.93905875e-02,
       4.87199947e-02, 5.37335314e-02, 4.14662994e-02, 7.12060705e-02,
       1.00979388e-01, 3.37999344e-01, 2.36736670e-01, 3.37695271e-01,
       1.46952152e-01, 4.26573791e-02, 1.61428954e-02, 6.92875311e-03,
       3.28500308e-02, 1.68971807e-01, 3.37695271e-01, 3.37695271e-01,
       1.69158250e-01, 3.78218815e-02, 7.29569653e-03, 5.87403961e-03,
       3.77097866e-03, 1.91879999e-02, 2.53364623e-01, 3.37695271e-01,
       8.02842230e-02, 1.74420010e-02, 1.86924525e-02, 2.05139425e-02,
       2.64648180e-02, 2.20060870e-02, 2.51947045e-02, 9.78574455e-02,
       3.37695271e-01, 2.68103510e-01, 9.43753123e-03, 1.48112178e-02,
       7.58336065e-03, 1.63303111e-02, 1.36040337e-02, 1.52347172e-02,
       1.28240556e-01, 3.37695271e-01, 3.43150735e-01, 1.08208776e-01,
       7.17088878e-02, 2.97538377e-02, 2.07811743e-02, 8.62733740e-03,
       1.23344408e-02, 2.37415284e-01, 3.43150735e-01, 2.18071401e-01,
       8.04018602e-02, 6.84466884e-02, 3.86518613e-02, 2.25606963e-01,
       6.98055178e-02, 1.16294147e-02, 1.31300226e-01, 3.43150735e-01,
       2.55854696e-01, 1.30584864e-02, 1.62682943e-02, 9.82733630e-03,
       1.28924176e-02, 1.23850377e-02, 1.59893092e-02, 2.09585667e-01,
       3.43150735e-01, 2.37915963e-01, 4.56815809e-02, 4.54449654e-02,
       2.78697368e-02, 4.48525548e-02, 2.77768858e-02, 1.13599831e-02,
       1.57364562e-01, 3.43150735e-01, 1.91213459e-01, 6.33241385e-02,
       6.54743835e-02, 6.18602224e-02, 3.57888907e-01, 1.22330561e-01,
       2.29063686e-02, 6.45929873e-02, 3.92822593e-01, 9.31851119e-02,
       4.05983962e-02, 1.16152875e-02, 3.59312892e-02, 7.67429098e-02,
       4.65852395e-02, 3.72846313e-02, 6.39161766e-02, 3.51444304e-01,
       2.78717697e-01, 6.46816492e-02, 6.62525520e-02, 5.59814535e-02,
       7.60309473e-02, 5.14133535e-02, 1.49014285e-02, 1.01827621e-01,
       3.92822593e-01, 1.92114219e-01, 4.07372788e-02, 2.35906318e-02,
       2.52086725e-02, 2.82210596e-02, 3.94967571e-02, 2.14393474e-02,
       1.92165479e-01, 3.92822593e-01, 3.48567441e-02, 1.07174851e-02,
       2.66110146e-04, 4.22652885e-02, 2.67119199e-01, 7.46552050e-02,
       3.77102979e-02, 5.11976704e-02, 1.10973828e-01, 2.39247624e-02,
       1.25348112e-02, 1.23845544e-02, 6.10446818e-02, 3.23095113e-01,
       2.91459352e-01, 3.30868922e-02, 4.09858972e-02, 2.26188917e-02,
       1.33082449e-01, 1.91052165e-02, 7.39799300e-03, 2.81585231e-02,
       1.18470453e-01, 4.50054966e-02, 7.78770745e-02, 2.82288373e-01,
       3.23095113e-01, 3.23095113e-01, 1.07038967e-01, 5.65341711e-02,
       7.23254085e-02, 3.23095113e-01, 1.61687747e-01, 1.20086819e-01,
       3.23095113e-01, 3.23095113e-01, 2.72505730e-02, 1.75019167e-02,
       2.10801158e-02, 4.50636856e-02, 3.09906960e-01, 3.09906960e-01,
       3.53980213e-02, 2.26953924e-02, 6.85344078e-03, 1.59037430e-02,
       7.75058335e-03, 1.07340477e-02, 6.02315702e-02, 3.09906960e-01,
       1.73403695e-01, 4.93436605e-02, 3.05254236e-02, 1.44273965e-02,
       3.09906960e-01, 1.70894369e-01, 8.37657005e-02, 1.01609915e-01,
       3.09906960e-01, 2.34282315e-01, 5.57168834e-02, 1.20610908e-01,
       2.93127090e-01, 1.67128086e-01, 5.06829470e-02, 2.18105558e-02,
       7.12393597e-02, 2.74519205e-01, 1.20628625e-01, 1.03032291e-01,
       1.89795747e-01, 3.09906960e-01, 7.85770360e-03, 9.99741023e-04,
       4.36803373e-03, 5.11541441e-02, 3.52125853e-01, 1.34447888e-01,
       2.47923452e-02, 1.56679563e-02, 1.13753630e-02, 2.05299351e-02,
       1.19267602e-03, 3.08833085e-03, 5.01700118e-02, 3.52125853e-01,
       8.50425065e-02, 3.57528962e-02, 6.94199791e-03, 7.32492562e-03,
       1.69125170e-01, 4.64075757e-03, 4.54626186e-03, 4.23345789e-02,
       3.52125853e-01, 7.72971436e-02, 1.50347009e-01, 2.31550336e-01,
       3.52125853e-01, 3.52125853e-01, 3.33418176e-02, 7.18193734e-03,
       3.46552022e-02, 2.74116874e-01, 5.58649786e-02, 1.23460166e-01,
       1.03441119e-01, 3.52125853e-01, 2.75589153e-02, 4.20750398e-03,
       3.49254627e-03, 9.67263952e-02, 3.66881758e-01, 6.23870529e-02,
       3.82069722e-02, 2.87883729e-03, 2.28380342e-03, 9.87815298e-03,
       6.32738322e-03, 1.55123705e-02, 1.47747636e-01, 3.53874981e-01,
       7.80372545e-02, 1.65702701e-02, 6.45606837e-04, 0.,
       3.66881758e-01, 1.03504509e-01, 1.44354654e-02, 6.40262514e-02,
       1.92030638e-01, 8.26825798e-02, 8.51651281e-02, 9.92215704e-03,
       3.66881758e-01, 3.66881758e-01, 1.13439642e-01, 4.71500978e-02,
       9.02916640e-02, 1.90772802e-01, 1.37877479e-01, 7.33354166e-02,
       6.24599643e-02, 3.66881758e-01, 2.03648140e-03, 2.40196157e-02,
       5.78272454e-02, 2.62475282e-01, 4.02090132e-01, 1.83701754e-01,
       4.27528620e-02, 7.09058857e-03, 9.65174986e-04, 1.21928006e-02,
       3.40680368e-02, 5.14881127e-02, 8.71329233e-02, 1.69075251e-01,
       8.50003138e-02, 4.63983379e-02, 1.50466524e-02, 1.19768577e-02,
       2.75434345e-01, 9.43751037e-02, 1.18194200e-01, 1.76651850e-01,
       2.19134942e-01, 2.71017164e-01, 3.11299592e-01, 2.62467742e-01,
       4.15313959e-01, 3.93255614e-02, 3.84435356e-02, 6.08872660e-02,
       5.00622466e-02, 1.47802308e-01, 7.97059610e-02, 1.85418963e-01,
       9.69708115e-02, 7.01799840e-02, 3.15273821e-01, 2.14915976e-01,
       7.41470233e-02, 7.54065290e-02, 9.19875726e-02, 1.62359059e-01,
       1.63863629e-01, 2.58459240e-01, 3.50938439e-01, 2.03179777e-01,
       1.34023875e-01, 1.14037208e-01, 9.86864939e-02, 8.65820423e-02,
       1.46060959e-01, 1.38395876e-01, 2.51597524e-01, 1.90615147e-01,
       1.27885461e-01, 1.37146950e-01, 9.36293527e-02, 6.44842610e-02,
       1.08806945e-01, 8.51896405e-02, 1.18311293e-01, 1.97105005e-01,
       1.78256735e-01, 1.24309495e-01, 8.98037106e-02, 1.04414523e-01,
       6.71766251e-02, 7.70573840e-02, 8.99174437e-02, 1.92427963e-01,
       2.62025535e-01, 2.19166443e-01, 2.21480340e-01, 1.53659090e-01,
       2.10223898e-01, 1.11039691e-01, 5.20517081e-02, 9.82466415e-02,
       1.34131953e-01, 1.57890543e-01, 1.43734410e-01, 2.31645271e-01,
       1.61568165e-01, 1.99263200e-01, 1.29935950e-01, 1.22491516e-01,
       1.68121308e-01, 1.92581803e-01, 1.34562418e-01, 2.36439049e-01,
       1.96415856e-01, 1.35901958e-01, 1.82929873e-01, 8.22244957e-02,
       4.66532893e-02, 7.79844373e-02, 1.31099716e-01, 1.71604902e-01,
       2.01215163e-01, 2.21179709e-01, 1.25223935e-01, 1.71668053e-01,
       9.60263684e-02, 9.80274528e-02, 1.17786013e-01, 1.78539485e-01,
       1.64539441e-01, 3.49680960e-01, 1.91148117e-01, 1.36839926e-01,
       9.59634334e-02, 8.51347968e-02, 1.05883732e-01, 1.64811239e-01,
       1.59012526e-01, 1.35841921e-01, 2.35594511e-01, 1.74381912e-01,
       1.76906347e-01, 1.14714168e-01, 1.26841038e-01, 9.07094702e-02,
       1.39470950e-01, 2.29423508e-01, 3.30561727e-01, 2.00632751e-01,
       1.81269482e-01, 9.00928900e-02, 7.39935786e-02, 8.67817551e-02,
       7.31639490e-02, 1.06740549e-01, 1.71126053e-01, 1.75089553e-01,
       3.28332514e-01, 1.68562979e-01, 1.36321291e-01, 8.68524164e-02,
       1.38579130e-01, 1.00632258e-01, 7.79267848e-02, 1.62725493e-01,
       2.64500469e-01, 2.03974053e-01, 1.22388110e-01, 1.05944164e-01,
       7.98403844e-02, 9.02832672e-02, 1.21832274e-01, 7.26152882e-02,
       1.84817001e-01, 2.87175328e-01, 2.40909889e-01, 2.27461994e-01,
       1.04814142e-01, 6.55673742e-02, 6.30225539e-02, 6.13168962e-02,
       6.72848672e-02, 2.12796450e-01, 2.95263737e-01, 2.74168998e-01,
       1.35862887e-01, 1.00234464e-01, 6.98240548e-02, 1.15066946e-01,
       1.27937630e-01, 4.99781705e-02, 1.54926345e-01, 2.24843934e-01,
       1.60928473e-01, 1.85045317e-01, 1.41093746e-01, 1.12929933e-01,
       1.01132855e-01, 1.39989957e-01, 8.17601979e-02, 2.23250821e-01,
       3.26697886e-01, 2.19598517e-01, 3.38562012e-01, 1.37784705e-01,
       4.89733554e-02, 5.57795987e-02, 4.04145420e-02, 4.40313220e-02,
       1.08977847e-01, 1.59019381e-01, 1.79788396e-01, 3.50589097e-01,
       2.10749120e-01, 6.65147826e-02, 4.49853987e-02, 5.53576462e-02,
       2.66976487e-02, 3.05839982e-02, 1.00190900e-01, 2.38716573e-01,
       3.36314440e-01, 2.15011895e-01, 1.12111010e-01, 8.94880369e-02,
       1.27800658e-01, 6.28878772e-02, 1.22586831e-01, 1.45455182e-01,
       1.36354074e-01, 3.50589097e-01, 2.92058110e-01, 1.34750471e-01,
       8.01480263e-02, 8.64787772e-02, 5.66634573e-02, 9.19419974e-02,
       1.21667549e-01, 1.30728841e-01, 3.30474705e-01, 1.49956137e-01,
       8.20291489e-02, 5.50662093e-02, 7.74064213e-02, 3.76367457e-02,
       3.58697325e-02, 1.05263658e-01, 2.00304732e-01, 3.26541960e-01,
       2.30159700e-01, 7.90200755e-02, 6.32815808e-02, 1.41292483e-01,
       7.64193311e-02, 4.57837358e-02, 1.05127014e-01, 2.48082548e-01,
       3.18206936e-01, 2.07967490e-01, 1.41553938e-01, 6.48203939e-02,
       7.09974468e-02, 3.76104899e-02, 7.28735328e-02, 1.55881837e-01,
       1.61221012e-01, 3.32943290e-01, 2.22711474e-01, 1.51090354e-01,
       5.06151393e-02, 8.53925049e-02, 4.69204709e-02, 6.57235011e-02,
       1.61283091e-01, 2.61719227e-01, 2.51915932e-01, 2.50223666e-01,
       8.41287598e-02, 4.12212647e-02, 6.80082515e-02, 6.45166263e-02,
       3.29522714e-02, 6.42396584e-02, 1.58285782e-01, 3.36142898e-01,
       3.36142898e-01, 1.46852344e-01, 4.75922078e-02, 3.50342691e-02,
       3.31940204e-02, 3.10062300e-02, 6.08360879e-02, 1.42363340e-01,
       2.67528713e-01, 1.96326301e-01, 1.78041860e-01, 7.98551291e-02,
       5.05087078e-02, 3.28735337e-02, 3.28085572e-02, 8.58053491e-02,
       1.39067426e-01, 3.36142898e-01, 3.36142898e-01, 3.36142898e-01,
       1.23033538e-01, 2.73464657e-02, 6.43386738e-03, 7.51841534e-03,
       2.38558874e-02, 1.02628931e-01, 3.09582531e-01, 3.09582531e-01,
       1.09183438e-01, 2.84898188e-02, 2.04159897e-02, 6.31471677e-03,
       1.19303893e-02, 4.04562503e-02, 1.55446246e-01, 2.96327859e-01,
       2.10085928e-01, 7.44056925e-02, 1.83356442e-02, 2.02584285e-02,
       3.93120348e-02, 3.59837413e-02, 1.52432591e-01, 3.09582531e-01,
       3.09582531e-01, 3.09582531e-01, 2.37124220e-01, 4.84194793e-02,
       2.51412299e-02, 9.49979946e-03, 1.97865590e-02, 3.15900482e-02,
       1.66894346e-01, 2.34052822e-01, 1.26942471e-01, 6.67451546e-02,
       1.39498673e-02, 2.48828419e-02, 8.71542096e-02, 1.34638935e-01,
       1.67321071e-01, 3.09582531e-01, 8.38800669e-02, 4.39784266e-02,
       1.97987743e-02, 1.13688679e-02, 1.87342204e-02, 2.23279566e-01,
       1.91388085e-01, 1.58448011e-01, 2.68457621e-01, 4.11662087e-02,
       1.30416965e-02, 2.34072618e-02, 2.34938096e-02, 2.71288138e-02,
       3.00697178e-01, 3.00697178e-01, 1.49504334e-01, 1.18864670e-01,
       6.80981129e-02, 3.99445109e-02, 3.51233259e-02, 3.66698881e-03,
       1.45660173e-02, 2.06094682e-01, 2.63983548e-01, 2.41124794e-01,
       1.92688733e-01, 9.19562206e-02, 2.44449247e-02, 3.49162258e-02,
       1.00540603e-02, 1.27987247e-02, 2.92502195e-01, 3.00697178e-01,
       3.00697178e-01, 3.00697178e-01, 4.36979793e-02, 9.95881110e-03,
       2.54521687e-02, 4.36886884e-02, 3.31273638e-02, 2.11124152e-01,
       2.55760103e-01, 1.74518257e-01, 1.29546717e-01, 5.43723442e-02,
       2.62345616e-02, 1.64966937e-02, 1.93649735e-02, 4.05734107e-02,
       1.07786626e-01, 1.62965566e-01, 2.05906436e-01, 1.38988957e-01,
       1.07015312e-01, 1.63509976e-02, 9.59283859e-03, 1.93742551e-02,
       1.00259501e-02, 1.29291594e-01, 3.48569989e-01, 3.48569989e-01,
       3.48569989e-01, 9.78611037e-02, 2.76573226e-02, 5.54498937e-03,
       8.12473986e-03, 2.00697146e-02, 7.59947523e-02, 2.73266315e-01,
       3.48569989e-01, 3.48569989e-01, 5.05040176e-02, 2.73926873e-02,
       3.43681835e-02, 2.96941809e-02, 5.89321665e-02, 9.39570814e-02,
       2.08761483e-01, 2.70501822e-01, 1.17767185e-01, 3.62971947e-02,
       2.04571243e-02, 4.09477986e-02, 8.94504562e-02, 1.11883774e-01,
       1.43178955e-01, 1.80210471e-01, 1.75771654e-01, 7.16170594e-02,
       5.01214005e-02, 1.80169903e-02, 1.26561606e-02, 1.49146067e-02,
       5.94394021e-02, 2.40273699e-01, 3.67816091e-01, 3.67816091e-01,
       2.53344625e-01, 2.09842827e-02, 1.05341254e-02, 1.92613713e-02,
       3.91749963e-02, 1.07828036e-01, 3.05965483e-01, 3.67816091e-01,
       3.01415056e-01, 4.49735895e-02, 5.20118102e-02, 1.52426800e-02,
       4.12437208e-02, 1.10772550e-01, 1.72893956e-01, 1.68918163e-01,
       1.80605397e-01, 1.13773756e-01, 1.63695723e-01, 2.34773472e-01,
       3.93178873e-02, 1.81989431e-01, 9.90998298e-02, 1.42323181e-01,
       1.06304035e-01, 1.28165781e-01, 2.06559941e-01, 3.77253175e-01,
       2.71078814e-02, 1.71026830e-02, 3.42867225e-02, 5.29436581e-02,
       1.49630487e-01, 2.80758142e-01, 3.76785994e-01, 1.99634895e-01,
       3.90668623e-02, 1.17479883e-01, 3.78650725e-02, 1.05615593e-01,
       7.64932856e-02, 1.29098028e-01, 1.74350053e-01, 2.42608652e-01,
       2.11916775e-01, 2.07582206e-01, 2.31280997e-01, 4.79790717e-02,
       1.21081583e-01, 8.30772221e-02, 6.61486909e-02, 7.43626878e-02,
       8.37577432e-02, 2.11872697e-01, 4.02539074e-01, 2.96144247e-01,
       1.11845359e-01, 1.26813695e-01, 1.82061344e-01, 9.08119231e-02,
       8.42144042e-02, 6.96859509e-02, 1.60151497e-01, 4.02539074e-01,
       1.26018226e-01, 3.26111503e-02, 5.71243502e-02, 5.26683256e-02,
       5.83010949e-02, 1.04971841e-01, 1.67067915e-01, 1.92640468e-01,
       2.07853198e-01, 1.03258960e-01, 5.46517819e-02, 9.08286348e-02,
       1.60906866e-01, 1.25189573e-01, 1.16804115e-01, 1.88665047e-01,
       2.25787938e-01, 1.67779192e-01, 2.23115340e-01, 1.04855299e-01,
       1.01385988e-01, 1.26008064e-01, 1.12439528e-01, 7.66276866e-02,
       5.96958548e-02, 1.30082473e-01, 4.60322767e-01, 2.19017029e-01,
       9.15518925e-02, 9.40836594e-02, 5.11134937e-02, 8.19234103e-02,
       9.79852080e-02, 1.06723122e-01, 3.11047971e-01, 4.60322767e-01,
       5.93153089e-02, 5.07719964e-02, 8.90385285e-02, 1.36202589e-01,
       2.04049513e-01, 8.91980231e-02, 1.40702471e-01, 1.63310677e-01,
       9.61746350e-02, 8.26999694e-02, 1.16693489e-01, 1.23099402e-01,
       7.24908039e-02, 1.86579898e-01, 7.95556456e-02, 1.18733168e-01,
       1.07583098e-01, 8.85769650e-02, 1.81321412e-01, 3.86219062e-02,
       3.38575095e-02, 2.01360714e-02, 4.24710885e-02, 4.08823416e-02,
       1.11499012e-01, 3.77338797e-01, 4.02419329e-01, 4.02419329e-01,
       1.66388735e-01, 7.46933296e-02, 5.57852313e-02, 1.10479236e-01,
       5.58533221e-02, 1.27494454e-01, 4.02419329e-01, 4.02419329e-01,
       5.80344535e-02, 7.14374706e-02, 6.64036795e-02, 3.30045298e-02,
       4.78222445e-02, 3.38110179e-02, 5.30079380e-02, 4.87832241e-02,
       7.14885592e-02, 9.95117947e-02, 6.80739135e-02, 6.13342486e-02,
       4.12542559e-02, 4.46540974e-02, 4.60404940e-02, 4.42514941e-02,
       9.83966589e-02, 1.50302470e-01, 3.89115065e-01, 2.35970199e-01,
       9.15324390e-02, 9.05118808e-02, 1.05228640e-01, 5.93402721e-02,
       4.56640683e-02, 1.79149315e-01, 3.89115065e-01, 3.04142267e-01,
       1.00310281e-01, 4.03159000e-02, 9.03239623e-02, 1.14062995e-01,
       3.35170738e-02, 1.00886866e-01, 3.01703483e-01, 3.89115065e-01,
       1.22027703e-01, 8.17962736e-02, 7.47383758e-02, 3.81840505e-02,
       4.10817415e-02, 4.03466634e-02, 2.66447347e-02, 6.85679242e-02,
       1.12859182e-01, 2.41802379e-01, 1.84177235e-01, 8.45914334e-02,
       4.38154861e-02, 2.57630963e-02, 1.65988076e-02, 3.66867706e-02,
       6.07805438e-02, 1.88772440e-01, 2.76146472e-01, 2.42737494e-02,
       8.25124513e-03, 3.81263308e-02, 1.11430347e-01, 1.01073813e-02,
       1.08919024e-01, 2.51104385e-01, 3.78536224e-01, 3.78536224e-01,
       1.39807194e-01, 3.17580849e-02, 1.34341922e-02, 5.48775792e-02,
       9.28829983e-03, 6.23576790e-02, 1.10066749e-01, 3.78536224e-01,
       2.55902976e-01, 9.50991586e-02, 2.99586859e-02, 2.00354550e-02,
       7.00824894e-03, 1.97654287e-03, 2.36189291e-02, 5.14856018e-02,
       1.81561351e-01, 3.56342196e-01, 2.55490363e-01, 1.17091820e-01,
       7.14931861e-02, 5.56565970e-02, 2.27311887e-02, 1.10442266e-02,
       2.93268822e-02, 1.81606993e-01, 3.12275976e-01, 1.90072864e-01,
       9.61556211e-02, 1.42112970e-02, 2.31172144e-02, 1.62070077e-02,
       1.46768764e-02, 7.22823851e-03, 3.12275976e-01, 3.12275976e-01,
       1.62165806e-01, 1.10525027e-01, 4.76830155e-02, 1.22219235e-01,
       9.37005877e-02, 8.32103938e-02, 1.04337484e-01, 3.12275976e-01,
       1.63322121e-01, 2.71027535e-01, 2.29420945e-01, 1.00809485e-01,
       1.39116883e-01, 5.49745336e-02, 5.57108643e-03, 9.85401403e-03,
       8.90992880e-02, 1.30850449e-01, 1.72467142e-01, 2.10983962e-01,
       1.51470944e-01, 3.12275976e-01, 2.03839242e-01, 5.62157929e-02,
       7.05447569e-02, 1.51533514e-01, 1.29426554e-01, 3.58431973e-02,
       3.61736231e-02, 4.34362814e-02, 1.13487542e-01, 1.08996965e-01,
       2.67122626e-01, 1.92168489e-01, 3.00837249e-01, 1.78929791e-01,
       1.89475901e-02, 1.80826634e-02, 7.61662889e-03, 2.64916327e-02,
       2.32905820e-02, 1.85351655e-01, 1.17906630e-01, 2.06958711e-01,
       9.30196792e-02, 3.43612880e-02, 6.76783621e-02, 1.26035228e-01,
       3.00837249e-01, 2.29589015e-01, 2.11232707e-01, 1.64060205e-01,
       2.32175410e-01, 3.00837249e-01, 2.14529913e-02, 5.43393344e-02,
       4.71997187e-02, 1.42496616e-01, 1.03737466e-01, 2.36270979e-01,
       2.33736053e-01, 3.00837249e-01, 1.30797565e-01, 9.93134528e-02,
       7.40139931e-02, 3.45515236e-02, 6.90609813e-02, 4.81161401e-02,
       5.71283177e-02, 1.86109796e-01, 1.91480219e-01, 1.35683686e-01,
       1.04255937e-01, 9.92137268e-02, 4.16300409e-02, 5.17492518e-02,
       7.10312054e-02, 1.43649787e-01, 2.52019405e-01, 2.68984050e-01,
       2.77215302e-01, 1.29615411e-01, 6.54317737e-02, 1.50358817e-02,
       2.31900159e-02, 7.53490031e-02, 7.33509138e-02, 2.38990545e-01,
       3.44989687e-01, 2.82790363e-01, 1.31135762e-01, 1.02585688e-01,
       2.96285208e-02, 4.59086187e-02, 1.62049383e-01, 1.31151497e-01,
       3.42255414e-01, 3.44989687e-01, 1.13055661e-01, 1.20563693e-01,
       1.00567870e-01, 3.54998708e-02, 4.50218208e-02, 8.14165398e-02,
       1.12898104e-01, 2.44544148e-01, 1.98765785e-01, 1.06271937e-01,
       1.59350917e-01, 1.15010560e-01, 6.55419007e-02, 4.82647382e-02,
       8.55510607e-02, 1.95932418e-01, 2.41751477e-01, 3.07320476e-01,
       1.80193171e-01, 1.54517218e-01, 1.18459165e-01, 3.52790169e-02,
       5.23125120e-02, 1.21144220e-01, 1.01838298e-01, 3.35591972e-01,
       2.85926342e-01, 9.69861820e-02, 1.87006965e-01, 1.57892436e-01,
       1.03708394e-01, 1.08038589e-01, 9.43909511e-02, 1.95197329e-01,
       3.11778933e-01, 2.28555381e-01, 8.53414088e-02, 1.44497752e-01,
       7.63778538e-02, 1.29915491e-01, 5.04759587e-02, 8.74230415e-02,
       2.42654234e-01, 2.55896986e-01, 3.14717829e-01, 8.13844502e-02,
       6.78945035e-02, 5.88850565e-02, 1.42973974e-01, 1.12033807e-01,
       1.05158173e-01, 1.93132952e-01, 2.73102731e-01, 1.48714736e-01,
       6.51379451e-02, 1.63818642e-01, 1.19499505e-01, 1.79256946e-01,
       1.39031276e-01, 1.14257500e-01, 2.52372146e-01, 2.96087295e-01,
       2.06033975e-01, 6.23694323e-02, 1.00870982e-01, 1.12409733e-01,
       1.81437761e-01, 1.68896407e-01, 1.47811756e-01, 1.95179299e-01,
       2.29306087e-01, 1.21698394e-01, 9.12928283e-02, 5.56210689e-02,
       9.41841900e-02, 1.25679001e-01, 1.45462498e-01, 9.43237469e-02,
       1.44324496e-01, 1.62935004e-01, 1.23887770e-01, 9.93011519e-02,
       1.24779120e-01, 2.11147785e-01, 2.05386490e-01, 1.91460967e-01,
       1.03935540e-01, 2.09927797e-01, 2.25868210e-01, 1.74300268e-01,
       9.04141814e-02, 1.39112398e-01, 1.86232373e-01, 1.76350594e-01,
       1.71558991e-01, 1.23767003e-01, 1.49126157e-01, 1.34262398e-01,
       1.42522186e-01, 1.10054068e-01, 2.52514184e-01, 3.01037133e-01,
       2.25226194e-01, 1.64580345e-01, 1.63794577e-01, 2.38896459e-01,
       1.78826019e-01, 1.52632907e-01, 1.90539166e-01, 1.63409308e-01,
       1.65616170e-01, 1.70216352e-01, 1.92146569e-01, 6.80814981e-02,
       1.52788907e-01, 1.13136902e-01, 1.03605390e-01, 2.92992383e-01,
       1.94146112e-01, 1.23124108e-01, 1.73763812e-01, 1.48829564e-01,
       1.16234019e-01, 1.65316939e-01, 1.11871749e-01, 7.72013888e-02,
       9.33034047e-02, 1.38612658e-01, 1.50083020e-01, 1.30575940e-01,
       1.87100306e-01, 1.54390737e-01, 2.20517442e-01, 1.37821779e-01,
       9.56069380e-02, 1.41130120e-01, 1.69414595e-01, 1.22084975e-01,
       2.12202758e-01, 3.23718518e-01, 2.67568588e-01, 1.81928977e-01,
       1.10558823e-01, 6.91007078e-02, 1.69536769e-01, 1.43382043e-01,
       8.61027986e-02, 1.02590576e-01, 8.37293416e-02, 7.13711977e-02,
       1.08184464e-01, 1.10717170e-01, 6.64394200e-02, 1.69002786e-01,
       1.88932106e-01, 2.41089597e-01, 1.56589016e-01, 1.28891557e-01,
       2.51605678e-02, 1.49621800e-01, 1.54190645e-01, 1.25179783e-01,
       1.87950373e-01, 2.51193136e-01, 1.49537668e-01, 1.80750608e-01,
       1.50494277e-01, 1.32742435e-01, 8.55260491e-02, 6.36574849e-02,
       6.92126900e-02, 2.08981335e-01, 3.87479663e-01, 3.87479663e-01,
       2.65883237e-01, 8.10257494e-02, 1.59045104e-02, 1.22604832e-01,
       7.74160102e-02, 1.00279495e-01, 9.78483707e-02, 1.85114756e-01,
       3.34315240e-01, 1.48188815e-01, 6.66981488e-02, 8.17253720e-03,
       3.75108719e-02, 4.70703430e-02, 5.55870272e-02, 1.50234058e-01,
       3.40867013e-01, 3.40867013e-01, 1.31373331e-01, 2.95774546e-02,
       1.45698292e-02, 1.82231907e-02, 2.12303791e-02, 6.26360700e-02,
       7.80765712e-02, 3.40867013e-01, 3.40867013e-01, 1.57709390e-01,
       4.79352698e-02, 0., 2.84339357e-02, 1.95310619e-02,
       3.14255357e-02, 1.00431241e-01, 3.16577852e-01, 3.40867013e-01,
       1.63815275e-01, 7.67366663e-02, 1.66095197e-02, 2.60166526e-02,
       2.00584494e-02, 3.73241976e-02, 2.52412647e-01, 3.49134952e-01,
       3.49134952e-01, 9.46812108e-02, 6.22393787e-02, 4.98590916e-02,
       5.75756133e-02, 6.55559003e-02, 1.98674649e-01, 2.35104591e-01,
       1.19350597e-01, 6.86927214e-02, 4.35494184e-02, 4.51785699e-02,
       9.68366042e-02, 1.95084125e-01, 1.94115728e-01, 3.49134952e-01,
       1.00118615e-01, 1.85707450e-01, 1.99607387e-01, 2.13529229e-01,
       2.33668849e-01, 6.30758256e-02, 5.84031269e-02, 4.72520180e-02,
       8.21101293e-02, 1.34268299e-01, 1.10222511e-01, 5.48075065e-02,
       1.04319334e-01, 1.79554462e-01, 7.77874067e-02, 1.18790053e-01,
       9.45737362e-02, 1.87325448e-01, 1.11181244e-01, 6.41796738e-02,
       5.58835901e-02, 1.68675352e-02, 1.53079079e-02, 1.09855168e-01,
       2.49414787e-01, 3.10151637e-01, 2.20455006e-01, 1.49150938e-01,
       5.19933812e-02, 4.51770313e-02, 7.81000545e-03, 1.10165356e-02,
       1.14947565e-01, 3.49540681e-01, 3.49540681e-01, 3.49540681e-01,
       1.17513046e-01, 1.30234182e-01, 5.76486103e-02, 8.97402838e-02,
       1.05281711e-01, 5.31804189e-02, 8.07887539e-02, 1.06477007e-01,
       1.48023710e-01, 1.27013221e-01, 1.44118115e-01, 7.94953480e-02,
       9.47439671e-02, 1.31639183e-01, 8.13837722e-02, 2.85754859e-01,
       2.85767078e-01, 1.22841328e-01, 6.46491721e-02, 8.01693834e-03,
       2.20741401e-03, 1.10439339e-03, 9.56768449e-03, 6.27541915e-02,
       3.11205119e-01, 3.11205119e-01, 2.56823182e-01, 5.30836545e-02,
       5.59513923e-03, 2.19032896e-04, 4.54721740e-03, 5.29559553e-02,
       2.28743345e-01, 2.78002709e-01, 3.11205119e-01, 2.19999105e-01,
       3.17313708e-02, 2.15071514e-02, 1.72575861e-02, 3.90193164e-02,
       1.24663763e-01, 1.84806541e-01, 2.61252612e-01, 2.24141940e-01,
       7.24697262e-02, 1.28994286e-02, 2.32274202e-03, 1.06591135e-02,
       1.07306756e-01, 3.11205119e-01, 3.11205119e-01, 1.99343309e-01,
       1.52138174e-01, 5.75688779e-02, 1.71327479e-02, 2.13542185e-03,
       1.64183031e-03, 1.39540806e-02, 1.11143835e-01, 3.25979799e-01,
       3.14371467e-01, 2.20916897e-01, 1.01571597e-01, 7.51298387e-03,
       1.63883287e-02, 1.59283895e-02, 3.02066468e-02, 1.45527095e-01,
       2.85528243e-01, 2.83222556e-01, 1.33614689e-01, 1.26020703e-02,
       3.64153064e-03, 1.14710722e-03, 2.58871503e-02, 1.39792114e-01,
       3.25979799e-01, 3.25979799e-01, 1.80573255e-01, 4.24353518e-02,
       1.35743245e-02, 4.15246282e-03, 2.01379340e-02, 4.78341170e-02,
       9.76447389e-02, 3.25979799e-01, 2.67841518e-01, 2.29281500e-01,
       8.22903439e-02, 1.80455483e-02, 3.74028608e-02, 5.42582758e-02,
       6.78436309e-02, 6.46631196e-02, 1.94214597e-01, 3.01443696e-01,
       2.98605531e-01, 2.13300243e-01, 3.73606682e-02, 1.01353683e-01,
       6.81143999e-02, 4.96446379e-02, 3.38540599e-02, 8.21750313e-02,
       1.46400437e-01, 1.86132088e-01, 1.95013225e-01, 1.42418772e-01,
       5.67282364e-02, 5.91597445e-02, 7.51168206e-02, 1.17643565e-01,
       2.56003380e-01, 2.26986870e-01, 3.21626633e-01, 3.00894767e-01,
       1.24704100e-01, 1.27145767e-01, 5.76517060e-02, 5.34339771e-02,
       2.76809204e-02, 1.15600727e-01, 1.19535901e-01, 1.99891225e-01,
       3.26564610e-01, 1.68745533e-01, 1.04623064e-01, 4.44473661e-02,
       2.27883067e-02, 2.74242293e-02, 9.41791832e-02, 1.53593674e-01,
       2.24591345e-01, 2.31713623e-01, 1.91560984e-01, 1.07717521e-01,
       5.78048117e-02, 5.13099506e-02, 7.20890760e-02, 1.56556159e-01,
       1.84100181e-01, 2.84818649e-01, 3.20024639e-01, 2.28810564e-01,
       7.82442465e-02, 5.41272946e-02, 7.12384731e-02, 2.40903348e-02,
       1.96213335e-01, 2.27642074e-01, 2.11949870e-01, 2.24310413e-01,
       1.27696186e-01, 1.65563390e-01, 1.69522852e-01, 1.20077439e-01,
       4.20873500e-02, 2.01118588e-01, 2.26019472e-01, 1.71254784e-01,
       1.60690606e-01, 2.35596165e-01, 1.24545395e-01, 9.35420543e-02,
       6.53098002e-02, 8.38419050e-02, 1.77857712e-01, 1.17547788e-01,
       2.13519961e-01, 2.52695978e-01, 1.75974727e-01, 3.23288977e-01,
       2.48224169e-01, 1.65100992e-01, 7.20430613e-02, 1.38673246e-01,
       7.41097257e-02, 1.13466039e-01, 1.48332819e-01, 2.44881660e-01,
       2.01083168e-01, 2.04449698e-01, 1.02371149e-01, 7.70366117e-02,
       1.08617477e-01, 7.75990337e-02, 8.44689906e-02, 1.17246732e-01,
       2.07971722e-01, 2.96856701e-01, 2.28165075e-01, 1.81757003e-01,
       1.31644264e-01, 7.90306330e-02, 9.70444381e-02, 6.05078340e-02,
       1.31765991e-01, 2.19494656e-01, 2.30885014e-01, 2.07397535e-01,
       1.44468009e-01, 6.34471104e-02, 7.05202669e-02, 6.94732368e-02,
       6.04661070e-02, 1.30115449e-01, 1.64497301e-01, 2.25501195e-01,
       2.86672890e-01, 1.94791704e-01, 8.23831037e-02, 8.12619925e-02,
       7.30588511e-02, 5.31820245e-02, 2.48377144e-01, 1.75236210e-01,
       1.88554302e-01, 1.59268126e-01, 1.67406753e-01, 9.84754264e-02,
       8.92280191e-02, 1.14151493e-01, 7.04803094e-02, 1.53492421e-01,
       1.60009474e-01, 2.15356171e-01, 3.35032940e-01, 2.69121855e-01,
       1.23987898e-01, 1.29771054e-01, 9.85476151e-02, 6.64408579e-02,
       2.11038843e-01, 1.91823065e-01, 2.05745161e-01, 2.09399104e-01,
       1.41660854e-01, 4.73660268e-02, 4.81906645e-02, 4.49830927e-02,
       2.80095842e-02, 1.33337021e-01, 1.26352370e-01, 3.40433359e-01,
       3.57218295e-01, 1.85011879e-01, 4.75154072e-02, 3.52610685e-02,
       3.60418446e-02, 5.30663244e-02, 8.27662721e-02, 1.37577623e-01,
       1.81437269e-01, 2.31591016e-01, 1.36831999e-01, 5.32793775e-02,
       6.46550134e-02, 3.36939059e-02, 2.92588305e-02, 1.53116867e-01,
       2.33476877e-01, 2.61166602e-01, 3.57179075e-01, 2.77647883e-01,
       1.25495240e-01, 7.63105005e-02, 5.09848669e-02, 5.04913442e-02,
       8.07412118e-02, 1.98963821e-01, 2.54389465e-01, 1.93838775e-01,
       8.77010226e-02, 2.91761197e-02, 6.71612658e-03, 9.48406849e-03,
       4.40384746e-02, 6.47368133e-02, 1.28020763e-01, 2.06845671e-01,
       2.64450878e-01, 1.64963111e-01, 1.55887216e-01, 2.59763181e-01,
       1.21947467e-01, 6.84496835e-02, 4.79733124e-02, 1.01361081e-01,
       1.52975693e-01, 2.53328413e-01, 3.10620457e-01, 9.25118178e-02,
       4.00384367e-02, 2.64329705e-02, 3.94383483e-02, 4.08705063e-02,
       6.19315729e-02, 1.08241864e-01, 2.32151076e-01, 2.67118394e-01,
       3.22915584e-01, 3.22915584e-01, 1.62913129e-01, 1.44294158e-01,
       4.90189567e-02, 4.67690825e-02, 2.40716711e-02, 8.51787105e-02,
       1.01298928e-01, 1.52806669e-01, 3.22672188e-01, 1.30276650e-01,
       1.84634048e-02, 6.61218958e-03, 1.42369261e-02, 4.85966681e-03,
       4.05230150e-02, 8.34866464e-02, 2.00248823e-01, 3.28749835e-01,
       3.28749835e-01, 1.97168682e-02, 1.46198766e-02, 1.56315379e-02,
       9.76821873e-03, 1.96379684e-02, 5.71791567e-02, 3.28749835e-01,
       3.28749835e-01, 1.30689189e-01, 3.89049128e-02, 4.67421813e-03,
       5.29835233e-03, 5.53884252e-04, 5.56092709e-03, 4.06921580e-02,
       3.28749835e-01, 3.28749835e-01, 3.28749835e-01, 5.78823313e-02,
       6.60190079e-03, 4.58611117e-04, 2.26469599e-02, 1.15611404e-02,
       3.43232863e-02, 1.03321172e-01, 3.24206889e-01, 3.24206889e-01,
       5.59762977e-02, 3.48402038e-02, 5.66614233e-02, 1.33978426e-01,
       8.83052777e-03, 4.31410819e-02, 5.15270606e-02, 2.31764734e-01,
       3.24206889e-01, 1.94787905e-01, 1.07494250e-01, 2.40988240e-01,
       6.72549382e-03, 7.68968649e-03, 7.42921093e-03, 8.01284313e-02,
       3.24206889e-01, 3.24206889e-01, 1.53244480e-01, 2.47909855e-02,
       5.68898860e-03, 6.73859268e-02, 5.91906831e-02, 5.09627499e-02,
       5.40957749e-02, 1.58890411e-01, 3.24206889e-01, 2.87550092e-01,
       6.65525496e-02, 7.46404007e-02, 2.41816074e-01, 1.18444353e-01,
       5.59037700e-02, 2.24791802e-02, 2.80506518e-02, 6.37006313e-02,
       8.06416050e-02, 1.35445595e-01, 2.65200138e-01, 2.63343513e-01,
       1.13733515e-01, 5.41790873e-02, 2.80288178e-02, 4.79409024e-02,
       1.16640896e-01, 1.08331583e-01, 2.53513753e-01, 3.34195584e-01,
       2.25458235e-01, 9.16042700e-02, 1.01724811e-01, 9.31323245e-02,
       6.85609579e-02, 5.85711598e-02, 2.28932053e-01, 2.96610951e-01,
       3.34195584e-01, 1.92581058e-01, 1.33881941e-01, 1.00642890e-01,
       9.42764953e-02, 1.34829491e-01, 1.10526770e-01, 9.92039591e-02,
       1.63633406e-01, 2.26735830e-01, 1.90321133e-01, 1.13736175e-01,
       5.68301566e-02, 2.75689885e-02, 3.24614942e-02, 1.10528737e-01,
       1.15527123e-01, 3.09689522e-01, 2.84496188e-01, 6.25051707e-02,
       8.38212967e-02, 6.44619018e-02, 6.92243353e-02, 6.16679117e-02,
       8.41993466e-02, 2.44113401e-01, 3.69871348e-01, 1.92970932e-01,
       1.23815283e-01, 1.12040780e-01, 5.99887408e-02, 3.40060331e-02,
       9.78495404e-02, 1.20744020e-01, 1.21785700e-01, 1.90494686e-01,
       1.76646397e-01, 3.75414714e-02, 6.36912286e-02, 3.35057117e-02,
       3.14818695e-02, 5.73289022e-02, 1.05526976e-01, 3.69871348e-01,
       3.69871348e-01, 2.01395124e-01, 2.62593608e-02, 6.09152205e-02,
       4.76909354e-02, 7.65423477e-02, 8.19908306e-02, 8.97241905e-02,
       2.16568902e-01, 3.10104728e-01, 9.23973769e-02, 5.69414683e-02,
       8.16025287e-02, 7.83110186e-02, 1.06335372e-01, 2.02216253e-01,
       1.06528156e-01, 1.04454532e-01, 1.22796319e-01, 7.00431764e-02,
       3.99754159e-02, 8.70516524e-02, 1.89985260e-02, 2.88547520e-02,
       4.94071096e-02, 9.31799412e-02, 3.66146535e-01, 3.66146535e-01,
       2.02281371e-01, 2.29067937e-01, 2.84946471e-01, 1.03696361e-01,
       1.96129471e-01, 1.63763404e-01, 8.83597583e-02, 1.23391025e-01,
       3.21266502e-01, 2.01165751e-01, 7.24508539e-02, 1.63248822e-01,
       1.50548697e-01, 1.55594289e-01, 1.53388962e-01, 6.11283146e-02,
       4.53786291e-02, 4.25224937e-02, 6.21531717e-02, 1.01389453e-01,
       2.75045425e-01, 2.21356392e-01, 1.65545538e-01, 9.33668986e-02,
       8.33918974e-02, 1.17875844e-01, 1.46288022e-01, 1.11675918e-01,
       1.39397711e-01, 2.51731813e-01, 2.72024572e-01, 3.26550812e-01,
       1.66087091e-01, 6.96065575e-02, 3.29185724e-02, 4.07508053e-02,
       5.64683974e-02, 8.09500962e-02, 2.03333288e-01, 3.26550812e-01,
       3.26550812e-01, 1.88861236e-01, 1.46891713e-01, 1.26712501e-01,
       1.20522343e-01, 8.00276622e-02, 6.15274310e-02, 1.26610532e-01,
       9.34705809e-02, 6.73569739e-02, 1.30920261e-01, 1.44608989e-01,
       1.65241569e-01, 1.93943620e-01, 1.08339578e-01, 1.13265194e-01,
       2.02550843e-01, 1.29909083e-01, 1.24443151e-01, 1.94706514e-01,
       1.46430641e-01, 7.33592436e-02, 8.44731405e-02, 1.05676435e-01,
       5.72879724e-02, 1.38242751e-01, 2.33806908e-01, 2.02946365e-01,
       2.21675560e-01, 2.62853742e-01, 1.95720389e-01, 1.66807279e-01,
       9.24682394e-02, 1.75168827e-01, 3.43107074e-01, 3.43107074e-01,
       2.25524649e-01, 1.46898463e-01, 1.11220464e-01, 5.61259612e-02,
       6.11927174e-02, 1.02590010e-01, 1.69534341e-01, 3.45949501e-01,
       1.80776387e-01, 1.32493556e-01, 8.07389319e-02, 4.95121889e-02,
       1.43794967e-02, 1.59564670e-02, 5.25957905e-02, 1.51139095e-01,
       3.45949501e-01, 3.45949501e-01, 1.51975468e-01, 3.89437340e-02,
       1.05446586e-02, 1.31939305e-02, 3.80060286e-03, 2.89812889e-02,
       1.83922574e-01, 3.45949501e-01, 2.85741210e-01, 1.43245563e-01,
       6.50569946e-02, 1.52473683e-02, 1.11849951e-02, 1.55747151e-02,
       4.21171188e-02, 1.58417702e-01, 3.45949501e-01, 2.46703967e-01,
       1.33427784e-01, 9.46904719e-02, 2.45086588e-02, 3.28331292e-02,
       1.50237763e-02, 3.36746238e-02, 1.26954004e-01, 3.78858984e-01,
       3.78858984e-01, 1.29673153e-01, 6.28322959e-02, 2.75527705e-02,
       3.59953381e-02, 2.02939063e-02, 2.85776332e-02, 1.08797953e-01,
       2.56740481e-01, 3.14325333e-01, 1.80341005e-01, 1.46635368e-01,
       4.31339480e-02, 4.57676165e-02, 3.69090959e-02, 4.37129550e-02,
       1.63792536e-01, 3.69832158e-01, 2.59741545e-01, 1.02027245e-01,
       6.36761338e-02, 4.84618321e-02, 6.38076141e-02, 2.77702399e-02,
       4.56707776e-02, 1.26170710e-01, 2.32532695e-01, 2.45036334e-01,
       1.13302313e-01, 9.98265371e-02, 9.98671204e-02, 8.29466730e-02,
       5.17753512e-02, 6.32143766e-02, 1.18450463e-01, 1.57674477e-01,
       1.85472861e-01, 2.45854095e-01, 3.18171740e-01, 4.97934408e-02,
       4.06812541e-02, 3.59949246e-02, 6.28558397e-02, 1.48396894e-01,
       1.38563618e-01, 1.17287539e-01, 1.65082738e-01, 2.47602448e-01,
       6.45175725e-02, 8.15845355e-02, 1.08394802e-01, 1.82213157e-01,
       1.87401682e-01, 1.97591782e-01, 2.04844251e-01, 1.43632293e-01,
       2.17650563e-01, 1.11951411e-01, 8.75137076e-02, 9.30703804e-02,
       1.11954339e-01, 2.18688712e-01, 2.38084123e-01, 2.35084191e-01,
       2.18298510e-01, 2.78523713e-01, 9.03134346e-02, 6.06625229e-02,
       1.27482653e-01, 1.16513178e-01, 1.01802580e-01, 2.12797061e-01,
       1.30408019e-01, 1.81991994e-01, 1.97561070e-01, 5.21429293e-02,
       6.11957461e-02, 8.56399387e-02, 1.30597040e-01, 1.01457268e-01,
       2.21591592e-01, 1.34455487e-01, 2.08788708e-01, 2.96736419e-01,
       1.17479540e-01, 2.00855002e-01, 1.24988332e-01, 4.15062197e-02,
       9.15110856e-02, 1.43684611e-01, 1.53365329e-01, 1.76462352e-01,
       2.79590160e-01, 1.12322271e-01, 7.90167898e-02, 8.49181637e-02,
       6.14439659e-02, 7.56933019e-02, 9.79438126e-02, 1.33351624e-01,
       3.16417247e-01, 3.96274209e-01, 1.05493255e-01, 1.88849106e-01,
       8.96961913e-02, 5.46036698e-02, 1.54884299e-02, 2.62426250e-02,
       3.79856378e-02, 1.30974025e-01, 2.70480365e-01, 1.52971417e-01,
       1.02527365e-01, 3.42607312e-02, 8.85990541e-03, 5.44151524e-03,
       1.20646097e-02, 4.82040048e-02, 2.69499868e-01, 3.65374655e-01,
       3.00560117e-01, 6.29059449e-02, 8.69167224e-03, 6.66372338e-03,
       1.13921799e-02, 1.51036698e-02, 7.32030272e-02, 3.52566808e-01,
       3.65374655e-01, 5.54739833e-02, 5.50778098e-02, 1.25046056e-02,
       9.09592491e-03, 6.80934312e-03, 1.47895664e-02, 1.11310549e-01,
       3.65374655e-01, 3.65374655e-01, 1.21099122e-01, 3.50217670e-02,
       2.90142139e-04, 6.80934312e-03, 3.44388839e-03, 3.44336056e-03,
       3.39390785e-02, 2.23487154e-01, 3.74087781e-01, 2.80830771e-01,
       5.93894906e-02, 9.44322534e-03, 3.44388839e-03, 6.37501990e-03,
       1.25452923e-02, 6.56160563e-02, 1.21838823e-01, 3.43441665e-01,
       1.94273323e-01, 1.77377194e-01, 6.67696372e-02, 3.06260437e-02,
       5.40903071e-03, 8.01284611e-03, 7.87573382e-02, 3.74087781e-01,
       3.74087781e-01, 1.61150664e-01, 4.25293557e-02, 7.60787213e-03,
       5.40903071e-03, 1.25766899e-02, 3.54107171e-02, 1.23035617e-01,
       2.51175135e-01, 2.69834429e-01, 1.51081055e-01, 1.30314976e-01,
       6.06032349e-02, 2.87934355e-02, 5.72845899e-02, 3.71030271e-02,
       1.02510862e-01, 1.44686013e-01, 1.97965458e-01, 1.53268039e-01,
       2.93505728e-01, 2.09697604e-01, 1.71506673e-01, 1.12267971e-01,
       6.32537454e-02, 8.27529281e-02, 5.69487065e-02, 2.11651772e-01,
       1.10548221e-01, 1.64069638e-01, 2.14804158e-01, 1.57134235e-01,
       5.07991835e-02, 7.70046338e-02, 1.99655697e-01, 2.56073564e-01,
       1.70349583e-01, 1.83979720e-01, 2.46481940e-01, 1.76649600e-01,
       1.26507804e-01, 9.94168222e-02, 1.30426019e-01, 1.34904429e-01,
       1.78922802e-01, 2.71906465e-01, 2.53479600e-01, 1.55902296e-01,
       1.53994158e-01, 8.88533890e-02, 8.30178931e-02, 8.07399079e-02,
       9.72726196e-02, 2.80904882e-02, 2.28971973e-01, 1.92391112e-01,
       1.62801728e-01, 1.53965592e-01, 1.21202089e-01, 1.79809853e-01,
       1.63615808e-01, 1.14027746e-01, 3.05031035e-02, 9.82111096e-02,
       1.82765499e-01, 1.66329250e-01, 1.53793752e-01, 3.63278449e-01,
       1.45216092e-01, 2.74899542e-01, 1.55062035e-01, 9.69379693e-02,
       2.05056176e-01, 2.00327173e-01, 1.10977717e-01, 1.35456055e-01,
       8.14550370e-02, 1.78278118e-01, 2.47469604e-01, 1.78582937e-01,
       7.90681094e-02, 7.98454136e-02, 1.75887331e-01, 1.54283687e-01,
       1.30596459e-01, 2.43382812e-01, 1.99015617e-01, 2.27477789e-01,
       1.02237687e-01, 6.18139654e-02, 5.25531024e-02, 7.99178779e-02,
       1.09901242e-01, 1.40457481e-01, 3.12252492e-01, 1.76462054e-01,
       1.77330837e-01, 1.35565236e-01, 1.00441024e-01, 7.37988502e-02,
       9.18305367e-02, 1.22423969e-01, 1.56526163e-01, 1.68758482e-01,
       1.63565949e-01, 1.81581423e-01, 1.44035459e-01, 1.53922886e-01,
       9.89509746e-02, 1.14480734e-01, 1.51128829e-01, 1.06971122e-01,
       2.12461114e-01, 2.45725229e-01, 2.33694538e-01, 1.53708071e-01,
       2.63663441e-01, 9.75562856e-02, 7.95608088e-02, 2.13183865e-01,
       1.82061583e-01, 2.62545019e-01, 9.33334455e-02, 1.16242677e-01,
       1.64908022e-01, 1.20715223e-01, 1.05158702e-01, 9.47753936e-02,
       9.48234349e-02, 9.44289565e-02, 8.46018419e-02, 1.46391839e-01,
       2.01274469e-01, 2.69417912e-01, 2.36260757e-01, 1.92963839e-01,
       9.45614129e-02, 8.80529135e-02, 9.39545706e-02, 9.02686268e-02,
       2.02212334e-01, 3.20110649e-01, 2.36502349e-01, 1.44050047e-01,
       7.77512565e-02, 5.12466654e-02, 1.01678081e-01, 9.12439004e-02,
       1.61818236e-01, 1.82083011e-01, 2.88008094e-01, 3.21653843e-01,
       2.30842277e-01, 1.98877349e-01, 8.57494771e-02, 1.21134125e-01,
       9.67490673e-02, 9.01256427e-02, 1.20449252e-01, 1.41606554e-01,
       1.38133362e-01, 8.27826113e-02, 6.82303011e-02, 2.18170322e-02,
       2.95527987e-02, 4.39261235e-02, 9.15656388e-02, 1.47707209e-01,
       2.94517070e-01, 3.73249292e-01, 2.27667853e-01, 7.80671015e-02,
       1.97165869e-02, 3.73530760e-02, 2.64517721e-02, 9.38368514e-02,
       8.16376582e-02, 1.33706272e-01, 2.31483743e-01, 1.87107980e-01,
       1.52827725e-01, 5.65140657e-02, 6.19170964e-02, 5.17759919e-02,
       4.71318327e-02, 1.21146612e-01, 3.60511899e-01, 3.73249292e-01,
       3.73249292e-01, 1.50022790e-01, 4.04820703e-02, 3.06556989e-02,
       3.16821299e-02, 6.76944554e-02, 7.51244426e-02, 2.31106624e-01,
       3.19987386e-01, 1.27845526e-01, 3.77034880e-02, 1.09509788e-02,
       2.20033508e-02, 1.29902866e-02, 2.41682827e-02, 5.68142906e-02,
       1.62072152e-01, 2.51577616e-01, 3.19987386e-01, 3.19987386e-01,
       1.45232767e-01, 6.04214482e-02, 2.00215951e-02, 1.24675399e-02,
       9.54011008e-02, 2.50426799e-01, 3.19987386e-01, 1.53335094e-01,
       7.07828924e-02, 1.85784623e-02, 2.20856424e-02, 1.55604137e-02,
       4.61450554e-02, 6.95862472e-02, 1.36606425e-01, 1.52778566e-01,
       2.35137478e-01, 3.19987386e-01, 2.73988694e-01, 8.41702148e-02,
       2.14803405e-02, 1.69782564e-02, 6.69124443e-03, 1.26976902e-02,
       5.60681112e-02, 3.29755574e-01, 3.29755574e-01, 1.71955451e-01,
       4.56473306e-02, 3.52949137e-03, 1.68053969e-03, 1.69022624e-05,
       8.68868490e-04, 2.99405232e-02, 2.62309253e-01, 3.29755574e-01,
       2.72188485e-01, 7.42441714e-02, 2.84329825e-03, 0.,
       7.49986479e-03, 1.14688016e-02, 2.89227571e-02, 1.54849023e-01,
       3.29755574e-01, 3.21847439e-01, 9.10512283e-02, 2.59840824e-02,
       5.26568014e-03, 1.34810666e-03, 9.29415226e-03, 3.33857015e-02,
       1.89544812e-01, 3.29755574e-01, 2.92871684e-01, 8.59256238e-02,
       2.71166265e-02, 8.95630848e-03, 1.01467613e-02, 5.81877492e-03,
       6.54595997e-03, 1.07435219e-01, 3.47490758e-01, 3.47490758e-01,
       2.09859282e-01, 2.85645071e-02, 1.15356138e-02, 1.29400194e-01,
       7.64459595e-02, 5.76474108e-02, 5.21939732e-02, 1.41654745e-01,
       3.47490758e-01, 3.20621938e-01, 9.49393138e-02, 1.61003739e-01,
       3.25431302e-03, 8.47459119e-03, 4.48800549e-02, 2.23962188e-01,
       3.47490758e-01, 3.12912345e-01, 6.99285567e-02, 1.39503460e-02,
       6.57312199e-03, 4.61135507e-02, 3.21982987e-02, 7.80022293e-02,
       1.06192164e-01, 2.17099696e-01, 1.66991487e-01, 1.16657607e-01,
       4.13701795e-02, 6.49616569e-02, 1.01479903e-01, 2.83854008e-02,
       4.82262671e-02, 3.99934836e-02, 2.48524193e-02, 2.00439319e-02,
       1.21148810e-01, 3.02623212e-01, 3.37998956e-01, 6.38832748e-02,
       4.70794998e-02, 4.00353223e-02, 3.54924314e-02, 5.16947880e-02,
       6.38694093e-02, 7.48311058e-02, 2.22598478e-01, 2.45191008e-01,
       6.14650026e-02, 2.42300350e-02, 3.17939743e-02, 2.26577558e-02,
       3.07608079e-02, 6.45462200e-02, 2.62227148e-01, 3.37998956e-01,
       3.37998956e-01, 7.13673458e-02, 3.20064761e-02, 1.23795252e-02,
       1.70462430e-02, 3.74637619e-02, 6.79963604e-02, 2.82075614e-01,
       3.37998956e-01, 3.37998956e-01, 7.33491853e-02, 5.86908907e-02,
       4.25726734e-02, 1.41877728e-02, 6.63693026e-02, 9.95052531e-02,
       7.60713816e-02, 1.98903561e-01, 1.61894783e-01, 6.76580518e-02,
       6.13418519e-02, 4.95471619e-02, 3.64996716e-02, 6.47686124e-02,
       9.41184983e-02, 2.09230632e-01, 2.57431418e-01, 1.31695926e-01,
       1.31504074e-01, 4.74637263e-02, 2.70956811e-02, 2.42091883e-02,
       5.76211475e-02, 6.64435923e-02, 2.42134452e-01, 3.76987249e-01,
       3.76987249e-01, 1.95559859e-01, 7.46359304e-02, 9.43531767e-02,
       9.37720835e-02, 1.29567474e-01, 6.59936816e-02, 1.76809430e-01,
       3.76987249e-01, 3.45620602e-01, 9.55225304e-02, 9.14684683e-02,
       4.57377583e-02, 4.17479835e-02, 4.51311134e-02, 5.67054376e-02,
       1.94209963e-01, 3.08501482e-01, 1.83488861e-01, 2.75722116e-01,
       3.08501482e-01, 1.13253243e-01, 9.42561105e-02, 3.29221375e-02,
       2.23341007e-02, 5.17109670e-02, 2.57688195e-01, 2.37805277e-01,
       2.79219240e-01, 1.13063030e-01, 9.36238393e-02, 7.78221861e-02,
       1.21561445e-01, 5.31456582e-02, 9.56090018e-02, 1.96559161e-01,
       2.13759318e-01, 3.08501482e-01, 2.68006831e-01, 1.28600553e-01,
       3.88633162e-02, 4.23486568e-02, 3.91017608e-02, 6.03678338e-02,
       1.52486414e-01, 2.27497652e-01, 2.22648665e-01, 3.28124851e-01,
       2.97452182e-01, 3.06294143e-01, 7.57807344e-02, 2.63882186e-02,
       1.33552160e-02, 4.95527945e-02, 8.47816542e-02, 9.46305022e-02,
       1.76220194e-01, 2.66705960e-01, 3.08618188e-01, 1.48191735e-01,
       9.60742682e-02, 9.42049026e-02, 1.08210176e-01, 7.56301880e-02,
       2.03024462e-01, 3.09724391e-01, 2.08993196e-01, 7.43997470e-02,
       6.38510585e-02, 4.84317616e-02, 4.98160943e-02, 7.03521892e-02,
       1.22054495e-01, 1.36885151e-01, 1.84897736e-01, 1.63120210e-01,
       1.90124884e-01, 1.17680706e-01, 9.36671197e-02, 6.98671043e-02,
       9.93156061e-02, 9.42740142e-02, 7.84550905e-02, 1.46163642e-01,
       2.57751435e-01, 1.82028204e-01, 1.19709842e-01, 1.26286983e-01,
       1.23012349e-01, 1.55624509e-01, 9.13768262e-02, 1.15558483e-01,
       3.46636236e-01, 3.46636236e-01, 2.52360046e-01, 7.00539425e-02,
       4.36385944e-02, 4.19371277e-02, 6.28664121e-02, 6.02762178e-02,
       1.44823998e-01, 1.46501616e-01, 1.91689596e-01, 1.60032809e-01,
       6.67747110e-02, 6.40971959e-02, 6.82941452e-02, 1.46441415e-01,
       1.28250271e-01, 1.15555011e-01, 2.51339078e-01, 3.46636236e-01,
       2.73745567e-01, 9.55842063e-02, 3.35214436e-02, 6.06719814e-02,
       8.31248239e-02, 9.78471190e-02, 1.00973926e-01, 3.39823008e-01,
       2.73104638e-01, 1.18347183e-01, 6.36304319e-02, 1.38805006e-02,
       2.32327804e-02, 2.11419966e-02, 3.54253016e-02, 1.47859320e-01,
       2.72023290e-01, 2.71005958e-01, 1.24600559e-01, 8.70922059e-02,
       1.91368796e-02, 3.39089222e-02, 2.05415133e-02, 3.69847156e-02,
       6.69361427e-02, 3.42056185e-01, 3.42056185e-01, 1.91066772e-01,
       7.64492601e-02, 1.92474853e-02, 3.23459692e-02, 3.16257365e-02,
       4.86618355e-02, 1.50668159e-01, 3.42056185e-01, 3.42056185e-01,
       1.57092109e-01, 9.11476240e-02, 3.12248114e-02, 3.86707708e-02,
       2.86635254e-02, 3.88253145e-02, 2.27941722e-01, 2.37934709e-01,
       2.77457237e-01, 1.59700513e-01, 5.61760888e-02, 2.53109448e-02,
       6.01581708e-02, 5.92506416e-02, 5.88563792e-02, 1.22919776e-01,
       1.25266403e-01, 1.86341852e-01, 1.38672784e-01, 1.04281686e-01,
       5.91991097e-02, 8.93165395e-02, 8.72112960e-02, 7.77020007e-02,
       2.34112620e-01, 3.27653766e-01, 3.47944438e-01, 2.96868593e-01,
       2.06526622e-01, 7.16940984e-02, 7.33363330e-02, 7.10335672e-02,
       5.45431301e-02, 1.33318305e-01, 1.06361315e-01, 1.58463806e-01,
       2.76792943e-01, 2.36278668e-01, 8.64151120e-02, 7.96237290e-02,
       8.08807388e-02, 1.03823341e-01, 1.42741889e-01, 1.47506669e-01,
       1.41517952e-01, 1.46066815e-01, 2.25786731e-01, 7.53753707e-02,
       1.02331765e-01, 1.35627270e-01, 1.30742997e-01, 1.99665666e-01,
       2.70296395e-01, 1.97094649e-01, 2.13797659e-01, 2.59818316e-01,
       7.91126713e-02, 8.43119547e-02, 1.24611013e-01, 1.07934758e-01,
       1.85274035e-01, 1.14951074e-01, 1.15638860e-01, 1.74442694e-01,
       2.56790400e-01, 6.93058372e-02, 1.05786256e-01, 1.39394715e-01,
       2.01991156e-01, 2.33304143e-01, 2.44738892e-01, 1.22939341e-01,
       1.43704236e-01, 2.09687054e-01, 4.18530032e-02, 1.33942574e-01,
       1.74985036e-01, 1.61728993e-01, 8.80833119e-02, 1.20571911e-01,
       1.10593572e-01, 1.13345757e-01, 1.65523216e-01, 1.10672295e-01,
       6.92568794e-02, 5.20141758e-02, 4.62491326e-02, 6.88460022e-02,
       6.37632310e-02, 2.05113053e-01, 4.01457638e-01, 2.81097293e-01,
       1.02071755e-01, 1.13027483e-01, 4.00621034e-02, 4.24728058e-02,
       1.00926720e-01, 1.42761886e-01, 1.20844096e-01, 1.15325011e-01,
       1.23320915e-01, 9.36577842e-02, 1.21984884e-01, 7.12958202e-02,
       5.57288900e-02, 8.31728503e-02, 8.74671414e-02, 2.97189951e-01,
       4.01457638e-01, 3.68401468e-01, 2.16907978e-01, 1.64511546e-01,
       3.12908180e-02, 3.57027538e-02, 7.16131832e-03, 1.54993162e-02,
       1.55118063e-01, 3.20511550e-01, 2.54128933e-01, 3.03861033e-02,
       2.41684709e-02, 3.52610019e-03, 3.93606955e-03, 3.03228153e-03,
       5.40528670e-02, 2.04701096e-01, 3.20511550e-01, 3.20511550e-01,
       5.26991449e-02, 1.39014283e-02, 1.40371022e-03, 1.19472446e-03,
       1.18995635e-02, 2.12516077e-02, 2.40805253e-01, 3.20511550e-01,
       2.75573671e-01, 9.66737345e-02, 5.11141680e-02, 5.17281285e-03,
       2.74088187e-03, 6.19566580e-03, 7.25061521e-02, 3.13855529e-01,
       3.20511550e-01, 2.83220053e-01, 1.08942643e-01, 4.83747348e-02,
       1.18904347e-02, 1.86217739e-03, 1.93423983e-02, 6.66360706e-02,
       2.01400757e-01, 3.49659592e-01, 3.49659592e-01, 9.70437005e-02,
       3.21227312e-02, 1.07259862e-02, 4.63608373e-03, 3.00346669e-02,
       6.88186660e-02, 1.70616046e-01, 2.66381145e-01, 2.36291841e-01,
       1.11308455e-01, 7.89637417e-02, 3.79249305e-02, 1.44085204e-02,
       3.37036289e-02, 9.09738839e-02, 2.85589993e-01, 3.49659592e-01,
       3.09462875e-01, 1.44240469e-01, 5.97350039e-02, 5.02827726e-02,
       7.34868506e-03, 8.64468068e-02, 6.20654970e-02, 2.03784168e-01,
       2.18845382e-01, 2.26894230e-01, 1.20972462e-01, 7.06220716e-02,
       7.50687644e-02, 2.76635215e-02, 4.12344001e-02, 9.35753509e-02,
       1.89727098e-01, 2.32073516e-01, 1.86681703e-01, 1.48558244e-01,
       1.23775832e-01, 1.07931763e-01, 5.54214492e-02, 5.04125468e-02,
       7.97651857e-02, 1.01552501e-01, 1.71842113e-01, 2.23601684e-01,
       3.25406462e-01, 1.82571903e-01, 1.63153008e-01, 7.01368228e-02,
       1.90126613e-01, 1.05345733e-01, 2.36467704e-01, 2.05348819e-01,
       2.15315849e-01, 8.99685845e-02, 8.15846473e-02, 1.04026765e-01,
       9.61850435e-02, 2.17650235e-01, 1.13292255e-01, 1.42915696e-01,
       1.67703658e-01, 2.49229103e-01, 1.92012161e-01, 2.17293516e-01,
       2.17816398e-01, 9.94445607e-02, 8.46062154e-02, 1.78623885e-01,
       8.03403407e-02, 1.02475964e-01, 1.44713476e-01, 2.42489442e-01,
       1.74806237e-01, 1.30402789e-01, 5.58753572e-02, 1.12086877e-01,
       2.30005115e-01, 1.67841882e-01, 1.25197902e-01, 8.59223530e-02,
       1.33775666e-01, 1.12026677e-01, 8.50679278e-02, 1.09745294e-01,
       1.61190644e-01, 1.16026670e-01, 8.50868523e-02, 1.18223824e-01,
       2.12108597e-01, 1.96790755e-01, 2.83689827e-01, 2.98377842e-01,
       7.91114867e-02, 1.19352452e-01, 2.76441097e-01, 2.43956685e-01,
       1.61308035e-01, 1.18789069e-01, 1.07840292e-01, 2.62742937e-01,
       2.15254560e-01, 7.37420544e-02, 7.06281811e-02, 1.12153083e-01,
       1.31852582e-01, 1.59721717e-01, 7.77563080e-02, 4.77629490e-02,
       4.53836769e-02, 2.97609884e-02, 7.49749094e-02, 1.56041309e-01,
       1.36554897e-01, 1.17888391e-01, 2.67868727e-01, 8.01544413e-02,
       1.62081067e-02, 5.67377359e-02, 1.21018052e-01, 1.59561977e-01,
       1.79529250e-01, 4.12172884e-01, 2.73995876e-01, 1.50578886e-01,
       5.25594428e-02, 2.66251806e-02, 7.97728077e-02, 4.22015861e-02,
       5.98664433e-02, 2.95953333e-01, 4.20392573e-01, 1.72089517e-01,
       1.36679590e-01, 7.93405473e-02, 7.08860010e-02, 9.90231261e-02,
       2.26517171e-01, 1.99172392e-01, 1.84022754e-01, 1.67461053e-01,
       1.03297368e-01, 8.92868489e-02, 2.40855478e-02, 1.80882867e-02,
       3.12808678e-02, 7.41047487e-02, 1.15031905e-01, 1.55958608e-01,
       1.45274758e-01, 1.32131904e-01, 1.01682775e-01, 1.01183295e-01,
       1.18666261e-01, 1.01299614e-01, 9.22968909e-02, 9.58324298e-02,
       2.34802723e-01, 2.01179504e-01, 1.31567582e-01, 1.35007188e-01,
       3.57518233e-02, 9.30991992e-02, 8.92359093e-02, 1.73359603e-01,
       1.79133564e-01, 3.25177610e-01, 3.24833483e-01, 3.48977000e-01,
       2.77514219e-01, 1.11602210e-01, 2.35525101e-01, 1.16043225e-01,
       1.26716629e-01, 2.26149142e-01, 5.71429357e-02, 7.00141117e-02,
       1.46853536e-01, 2.04018518e-01, 2.22556308e-01, 1.40077934e-01,
       7.10713863e-02, 5.90129755e-02, 5.29767759e-02, 1.00620039e-01,
       1.95940062e-01, 3.38632792e-01, 2.75283694e-01, 1.74682185e-01,
       8.56008828e-02, 4.56418321e-02, 4.45400365e-02, 6.55903667e-02,
       2.15056479e-01, 2.36508757e-01, 2.82474428e-01, 2.40895599e-01,
       1.83290988e-01, 1.77554190e-01, 7.18863979e-02, 3.92242223e-02,
       1.31276548e-01, 1.94337502e-01, 1.66691020e-01, 1.75319895e-01,
       1.95555329e-01, 1.41180351e-01, 1.34076998e-01, 1.26338556e-01,
       1.09603554e-01, 1.73499748e-01, 9.06901211e-02, 1.72860324e-01,
       2.77449071e-01, 1.44878015e-01, 9.65268016e-02, 4.92906459e-02,
       9.60560963e-02, 6.89841211e-02, 8.75319690e-02, 4.97271754e-02,
       7.20355287e-02, 6.53386712e-02, 1.01639487e-01, 3.39832962e-01,
       3.39832962e-01, 2.88572431e-01, 1.04174584e-01, 4.92620021e-02,
       7.98870400e-02, 7.21529722e-02, 7.29399920e-02, 8.23139325e-02,
       8.84485766e-02, 1.26421660e-01, 2.59982049e-01, 2.15149373e-01,
       1.27380982e-01, 3.25613618e-02, 2.71994956e-02, 2.62848716e-02,
       6.71956763e-02, 2.19030932e-01, 2.99633175e-01, 3.39832962e-01,
       1.88351169e-01, 6.34892583e-02, 6.30869530e-03, 8.41628946e-03,
       1.51197799e-02, 5.63265383e-02, 2.61978209e-01, 2.94536948e-01,
       2.85105169e-01, 9.94966030e-02, 1.72323063e-02, 2.76426156e-03,
       2.27361061e-02, 5.56555986e-02, 1.92505270e-01, 2.94536948e-01,
       2.94536948e-01, 2.14397028e-01, 9.52012688e-02, 3.12677249e-02,
       1.05092525e-02, 5.11955889e-03, 9.98974778e-03, 2.44717393e-02,
       7.65282661e-02, 2.94536948e-01, 2.94536948e-01, 1.07327156e-01,
       2.58577727e-02, 5.15808277e-02, 2.06688773e-02, 4.81222048e-02,
       2.01156080e-01, 2.09469959e-01, 2.94536948e-01, 2.94536948e-01,
       1.25400290e-01, 7.16194734e-02, 2.40307022e-03, 1.79369580e-02,
       9.03046057e-02, 2.90592611e-01, 3.20858806e-01, 2.01488838e-01,
       4.65226173e-02, 1.69726890e-02, 1.19709214e-02, 4.36968841e-02,
       3.88452746e-02, 1.42468303e-01, 1.92531690e-01, 2.95839041e-01,
       1.24077633e-01, 5.68047985e-02, 1.81545429e-02, 3.87815982e-02,
       5.14280573e-02, 2.32080054e-02, 7.65696391e-02, 3.20858806e-01,
       3.20858806e-01, 2.53939629e-01, 9.92879421e-02, 4.47680391e-02,
       4.41154949e-02, 4.49454077e-02, 4.65297885e-02, 1.78035662e-01,
       3.20858806e-01, 3.20858806e-01, 2.17731640e-01, 7.35798553e-02,
       1.53813343e-02, 2.96996348e-02, 3.93141359e-02, 5.64373732e-02,
       7.39179775e-02, 8.52353349e-02, 1.05141960e-01, 1.28697410e-01,
       2.33393863e-01, 3.02226663e-01, 1.21415354e-01, 6.65389672e-02,
       8.91537592e-02, 5.55995069e-02, 1.01348840e-01, 1.25708953e-01,
       1.23115554e-01, 3.21041882e-01, 3.21041882e-01, 2.04717532e-01,
       6.19420931e-02, 1.06093206e-01, 1.62604585e-01, 2.97617972e-01,
       1.88291594e-01, 1.08943895e-01, 1.23035677e-01, 7.95317218e-02,
       3.39493789e-02, 7.00837746e-02, 1.94449887e-01, 1.51005775e-01,
       3.21041882e-01, 2.50453621e-01, 8.88825059e-02, 1.62998378e-01,
       1.37136251e-01, 4.21052799e-02, 7.65975565e-02, 5.21762595e-02,
       2.22877990e-02, 4.88886945e-02, 8.57385248e-02, 6.71200305e-02,
       2.74563432e-01, 3.23283613e-01, 2.46120855e-01, 8.91628563e-02,
       3.95560190e-02, 2.64401939e-02, 4.45917845e-02, 9.36092436e-02,
       4.89698164e-02, 2.74086863e-01, 3.23283613e-01, 2.69466370e-01,
       6.96441680e-02, 1.10096224e-01, 5.00102416e-02, 1.57061487e-01,
       1.14566512e-01, 1.06753983e-01, 2.53759891e-01, 2.14683220e-01,
       1.08329728e-01, 6.15364909e-02, 3.45500708e-02, 8.87077022e-03,
       1.99819133e-02, 7.41963461e-02, 1.32092446e-01, 3.23283613e-01,
       3.23283613e-01, 1.70399427e-01, 1.65132686e-01, 7.74073750e-02,
       5.38431294e-02, 4.67608683e-02, 1.27883092e-01, 1.21590905e-01,
       2.38618329e-01, 2.41364628e-01, 1.55262396e-01, 2.49866724e-01,
       1.17441438e-01, 7.92847499e-02, 3.93211767e-02, 8.70030373e-02,
       1.97448552e-01, 1.72394603e-01, 1.16753049e-01, 1.49202451e-01,
       5.87883256e-02, 3.09128799e-02, 3.03176381e-02, 4.21925075e-02,
       1.23903088e-01, 2.81038433e-01, 3.25381488e-01, 3.06492150e-01,
       8.94996449e-02, 7.39472434e-02, 3.92019674e-02, 8.66846144e-02,
       8.41916129e-02, 1.61761016e-01, 3.25381488e-01, 3.25381488e-01,
       9.81934592e-02, 1.15357570e-01, 1.44893289e-01, 1.13452382e-01,
       1.16409920e-01, 1.01637259e-01, 1.23542428e-01, 2.32435942e-01,
       1.81476757e-01, 1.11386128e-01, 1.29865855e-01, 9.74451527e-02,
       1.07118145e-01, 1.52550220e-01, 2.21795350e-01, 1.86505720e-01,
       2.24838555e-01, 1.21654496e-01, 5.72611690e-02, 5.59348986e-02,
       6.72725886e-02, 5.33583835e-02, 1.20491728e-01, 1.38303399e-01,
       1.91710010e-01, 3.54633182e-01, 2.76477754e-01, 1.07027732e-01,
       1.21200979e-01, 4.99884859e-02, 8.90949816e-02, 1.51364356e-01,
       1.41014233e-01, 2.46861488e-01, 3.30995947e-01, 2.49486789e-01,
       1.14781924e-01, 4.43277098e-02, 1.00024045e-01, 7.33868927e-02,
       1.09471641e-01, 1.25086412e-01, 8.54935423e-02, 1.02735937e-01,
       6.68292791e-02, 4.23824005e-02, 6.47552758e-02, 7.11583123e-02,
       1.17810659e-01, 3.87894958e-01, 3.87894958e-01, 1.04616337e-01,
       4.47703451e-02, 6.20841309e-02, 2.64173746e-02, 5.23597859e-02,
